110 300
year 0.001144787 0.0005646775 0.0009889189 -0.001257658 0.0006683098 -0.0003460755 -0.00040353002 -0.0008131372 -0.000930064 -0.00083742355 0.0015442785 1.3007881e-05 0.00070656196 -0.0001401849 -0.00021983412 -0.00081025 -0.00053261255 0.00044922114 0.0006057536 -0.0005630855 -0.00036821797 0.0011042212 -0.00053476985 0.00095464074 0.0012385303 0.0005926374 0.00064405997 -0.001537102 0.0007904919 0.001202474 0.0008651278 -0.0010621527 -0.00068901066 0.00019619359 0.00046870293 -0.00020388322 -0.00067399896 0.0006439673 -0.00025979884 0.0010817553 -0.0007410116 0.00044921966 -0.00043677332 0.00084493833 0.00091943267 -1.3988593e-05 -0.0003110476 -0.0013639244 -0.00068508525 0.0012683367 0.00038444172 0.0013393522 0.00095331477 0.00014879034 0.0002950885 -0.0004983659 0.0008436796 0.0009940179 -0.0002753245 0.00020441969 -0.0010390335 0.0010766701 -0.0013432985 -0.00035205894 0.00042164198 0.0006212162 0.00050444045 0.0005322624 0.00054574927 -4.8143716e-05 -0.00011627032 -0.0011853548 -0.0004439923 -0.00041961085 0.00092782866 0.0014397126 0.0009279062 -0.00069108914 0.0011885399 0.0002552239 0.00049994694 0.0016509878 -0.0013832302 0.0007779753 0.00039804642 0.0013608462 -0.00088350853 -9.173966e-05 -0.0014671743 0.0013744829 0.00043888722 -0.00029577862 0.0010336165 -0.0013417037 -0.0015052718 -9.1564405e-05 0.0012557753 0.0011980791 0.00067251973 0.0014023863 0.0005435313 0.000195443 0.0015821306 -2.3198363e-05 0.00018977119 0.0015902485 0.0011212758 -0.0016476477 0.0015767483 0.0007959739 -0.0012591553 0.0014081047 0.0010454974 0.0010487705 0.0015770756 0.00090065587 -0.0015893945 0.00021735682 -0.0014161816 -0.0007296239 6.889289e-05 -0.00016223059 0.0004211778 -0.00044719368 0.00029225572 -0.0011066799 0.0014065445 -0.00093384204 -0.0009050824 -0.0012108657 0.00093113974 -0.0010664494 0.0002704463 -0.0014334584 0.0009227365 -0.00029608846 1.2837271e-06 0.0013726588 -0.00081983645 0.0006890177 -0.0008991735 -0.0008748274 0.0010657462 0.0007135235 -0.00011584863 0.0011808308 0.00075285253 -0.0011385791 -0.00044991513 -0.00075844507 -0.0016063313 0.0004994488 -0.0010243028 0.00069124234 -0.00076042354 -0.0009713045 -0.0015118038 -0.00032928857 0.00098298 -0.00070223963 -0.001269303 0.001066727 -0.00086371746 -0.0008680725 -0.0010646919 0.00068051956 -0.0002735395 0.0004045992 -0.0015621654 -0.0005689422 0.0010493303 0.0010163394 0.00069513987 -0.00012547764 -0.0005428829 -0.0015499347 0.0016176761 0.0013229658 -0.0014308215 -0.0005207069 0.0008800382 0.0010413612 0.0012167209 -0.0015490188 0.00023970587 0.0014468313 -0.00011211593 -0.0013852913 0.00037913184 -0.00083045015 -0.0016513956 -0.0011017673 -0.0009994734 -0.001482377 -0.001330606 -0.0010220737 6.817453e-05 0.0004918172 0.0013848576 -0.0011173203 0.0015923176 -0.0014345091 -0.001158871 -0.0002898685 0.0009799695 0.0010496827 -0.0010384581 -0.0008873646 0.00096489966 0.0010655727 0.00065563875 0.0003265608 0.0002841899 -0.00036723062 -0.0001691747 -0.001584151 8.421774e-05 0.00064396864 -0.0007605085 -0.0012532083 0.001013504 0.0016593821 0.00030970018 -0.00020406414 -0.0002316596 0.0010452865 0.0016681888 -0.0016404641 -0.00013678914 -0.0012928965 0.00049418554 0.00022764923 0.00025528175 -0.000101170466 -0.0008031382 -0.0013633484 -0.0015238936 -0.0009290926 0.00056578685 0.0006183341 -9.5370655e-05 -0.00044130956 -0.0011617988 0.00058590114 -0.0005738522 -0.0012939756 -0.001000985 -0.00042023565 -0.0009291154 0.00073969376 -0.0015139083 0.0011030997 0.0009912185 0.00018541192 -0.000744796 0.0015577755 0.00044109626 -0.00016526516 -8.95452e-05 0.0002547073 -0.00021248353 9.5963806e-05 -0.0011038907 -0.0006376556 -0.0015175871 -0.0012685976 -0.00048543885 -0.00073049986 -0.0007373216 0.0008614538 0.0014235236 -0.0012574397 9.652443e-05 -0.0015117889 0.00027880343 -0.0010804965 -0.00058407563 -0.0007107824 0.0011731139 -0.0016391398 -7.369304e-05 -0.0009808537 0.00088089955 0.0010685297 0.0008552576 -0.00073867734 -0.0013758524 0.0002395036 0.00049336295 -0.00080808735 -0.0010620871 -0.0015623884 -0.0015399789 0.001223835 -0.0013969367 -0.0010642131 0.0013496202 -0.0014735173 0.00030412723 -0.0010333532
priyanka -0.00019268875 0.0014825567 0.0007933841 -0.00049547164 -0.00011901807 0.0010951738 0.00064491027 -0.0004986259 0.00072727026 -0.0012893168 -0.00054029934 0.00015622938 -7.3573785e-05 -0.0007007716 -0.00067844137 -0.00025894734 -0.0014151143 0.0012099104 -0.0003847534 0.0012084747 -0.0006382602 -0.0014798372 0.00051153614 -0.0016314231 -0.00068265887 0.0005708861 0.0002616865 -0.0005912668 0.0007486662 -0.0015705334 -0.00023087607 -0.0012271218 -0.00071853906 -0.0013452603 0.00066967786 -0.00026988942 0.00036651434 -0.00013490929 -0.0007325841 -0.00091333414 0.00050125417 -0.0011794392 0.00011410909 -0.00016265898 0.0013035878 -0.0010183895 -0.00035600536 0.0014183343 -0.0003549984 0.0002258604 0.0013062153 0.000118325246 -0.00018812518 -0.00045593033 0.001330802 -0.0011277152 -0.0008730249 0.0004894178 0.0001664754 0.0008611008 -0.0010143642 0.0013782246 -0.000971865 -0.0013405817 -0.00057056703 0.0012253559 0.00019147396 -0.00039124335 0.00045680025 -0.0012673669 0.0003972871 -0.00013319173 -6.5175416e-05 6.5134736e-05 0.0015101703 -0.0010080428 0.0004265575 0.0002815947 -0.00021849686 0.001049788 0.001181408 -2.6055632e-06 0.00081321795 -0.0015804139 -0.00014254733 0.0016065994 -0.001524382 -0.00038971528 3.2873715e-05 -0.00045328948 0.00040023963 -0.0016426223 -0.0005148754 0.0010539705 0.0013629344 0.0003663435 4.9718725e-05 -0.0013751601 -0.00078920875 -0.0011379312 0.0016367075 0.0013226925 -0.0011678498 0.00016087813 -0.0007885767 -0.00093403104 0.00095271115 0.0007262343 0.0013521517 0.0008411451 -0.0009793949 0.0010072126 -0.0013834228 -0.00076355436 -0.0010115445 -0.0010214482 -0.0014343332 -0.00041934912 0.00021690821 -0.00017404942 0.0002547464 -0.0012379733 0.00059819745 -0.0011774339 -0.001043634 0.0007573153 -0.0016611787 -0.00014472773 -0.0014073396 -0.00037247204 -0.0015840052 -0.00026192656 -0.00015538398 -0.00089010876 0.00052211987 -0.0004602428 0.00048157372 -0.0012214269 0.0007176589 0.0007827627 0.00036457033 0.0008859683 0.00034206873 0.0008093415 -0.0008820334 -0.0010261405 0.0012715984 -0.00015913136 -1.0959164e-05 0.0007071652 -7.4647294e-05 -0.001533052 -0.001464893 0.0014283234 -0.0014700867 -0.0004382831 -0.00064386224 -0.0014764386 -0.0013107726 -0.0014796464 -0.0010232013 -0.00066126924 0.0016573705 0.0010677011 -0.0006490392 0.00049314 0.00048216074 -0.0016097539 -0.00010720522 0.0012254396 0.0013095267 -0.0007955442 0.00027410893 0.001196792 -0.00010383785 0.00075298874 -0.001510862 -0.0013146332 -0.0004897303 -0.0002395991 0.0010537204 -0.0014889825 -0.0014043967 0.0003707994 0.0009533722 0.0006000876 0.001080083 -0.0007962302 0.00073422224 3.546024e-05 -0.0009894895 -0.0006391955 0.0015650346 0.00017328277 -0.00015443882 0.0010172847 -0.0012228705 0.0016023777 0.0010885213 -0.0012531123 0.0009492622 -0.0011350575 0.00040320973 -0.0011214096 0.0010112735 -0.0012713962 0.00047382218 -0.0003545876 -0.0012046929 -0.0003753283 -0.00010501895 -0.0012819418 2.9904353e-05 0.00012070581 -0.0014958731 0.0003523649 0.0013303766 -0.0010736792 0.00037310133 -0.0016552429 0.00038326552 0.001474784 0.0008780114 -0.001003965 -0.00044227327 -5.9160735e-05 0.00035802304 0.0016065467 0.0016499212 -0.00025248766 -0.0007286833 -0.00043741724 0.00067431165 0.0007895212 6.3133457e-06 0.0009932438 -0.00023693524 0.00080533576 0.0004048959 0.0015717047 0.0011145611 -0.0010175167 0.0009396471 0.0011625015 0.000581159 -0.0004162618 -0.0011873656 -0.00070117705 0.0002792842 0.0005305393 0.0016329626 0.0011651447 0.0011637144 -1.1211586e-05 0.0010992131 -0.0003761886 9.583409e-06 -0.0013224491 -0.0007613216 0.000318426 -0.0008220595 0.0009984511 0.0013412803 0.0012699446 -0.0010249638 0.00089864986 -0.0007409311 -0.0016600998 -0.0010140734 0.000292609 -0.00061478256 -0.00082160096 -0.0013489542 0.0010983014 -0.00060306006 0.00114682 -0.00073484145 0.00096430135 -0.0015349246 0.000814187 0.0004803227 -0.001244977 -0.0009795629 0.0010252099 -0.00088367163 -0.000100174075 0.00034164634 -0.00046564103 -0.0013944968 -0.0016607363 0.0012177207 -0.0014719518 -0.0013183468 0.00079545303 0.00066165574 0.0007635722 -0.0010378989 -0.0004255542 -0.0015158165 0.0006239609
nick 0.0005883868 0.0013957047 -0.00019087158 0.0015410999 6.021545e-05 -0.0014002542 -0.0005168688 0.0004970911 -0.0008371244 -0.0012741248 0.00092487654 -0.0003702376 0.00011188392 0.0016415425 0.0010142955 0.0016371239 -0.0010663151 0.0002822081 0.00058887294 -0.0002936432 -0.0014839106 -0.00030212203 0.0014065681 -0.0004494648 -0.0008954951 -0.0003509893 -0.0012948085 0.00093611144 -0.00017806483 0.0013742169 0.00031482652 -0.00044572106 -0.001677661 0.000850838 0.0014783847 0.000900333 0.001038096 -0.0004315772 0.0012437158 -0.0011926712 0.00038368834 -0.0008905183 -0.001020372 0.0004761523 0.0016423034 0.0014771328 -0.001524337 -0.0008766725 0.0011839217 -0.0009999106 -0.00019005478 0.0014333283 -0.0013968155 -0.00016098874 -0.00027128257 0.0005187764 -0.0016263437 0.00073577685 0.00017044065 -0.0008196108 0.000933998 0.00031186081 -0.0012253 0.00055211 0.00080142036 0.00056322943 -0.0011391224 0.00077313534 -0.000780206 -0.0006388878 -5.97198e-05 -0.00012894542 -0.00082959223 -0.0013608721 0.0014487256 0.00078120054 0.00029281958 0.0016475207 0.00043090145 0.0011311132 0.0016591314 0.00077133486 -0.00068894186 0.00020478414 0.00034346682 9.112367e-05 -0.000462169 -0.00014370964 0.0014066036 -0.00024286222 0.0013712685 0.00075610995 0.0002622674 -0.00024097289 -0.0006513545 -0.0012298895 0.0009089713 -0.0007756391 -0.001606534 -0.00021007417 0.0016555113 0.0013092675 -0.00031102734 -0.00024992923 1.2930328e-05 -0.0010959844 0.000667577 -0.0008984807 -0.00157393 -0.0015363812 0.0012371952 0.001170977 -0.0004007869 8.926659e-05 0.00083859987 0.00086012547 0.00029625837 -0.0005473922 0.0016274591 -0.00061119517 0.0013924724 0.0010723904 0.00040548696 0.00011998872 -0.0011034732 -5.0540148e-05 0.0013403249 -0.0013982063 -0.0012832255 -0.0003110846 -0.00015149958 -0.0014818376 0.00034617446 0.0005535398 -0.0013777398 -0.00057654973 -0.0015509401 -0.000575807 0.00047393376 0.0011014347 -0.00056698656 -2.4487701e-05 -0.00055229955 -0.0015545866 -0.00025434018 -0.00037989442 0.00096385716 0.0002404523 0.0011392563 3.707238e-05 -0.0015076293 0.0014805841 -0.0006743509 -0.00035910192 0.0010140176 -0.00019867232 -0.0011608016 -0.0005106663 0.0008160571 0.0011427938 0.0015956118 -0.0005761384 -0.00045430553 0.00055755826 -0.00044082347 0.001271174 0.00017765278 0.0006806216 0.0012856458 -0.00042230045 -0.00060601684 0.0014284934 0.0004691178 0.001174985 0.00046072627 -0.0013535982 0.00069438224 0.00014207316 0.0006543958 0.0015066188 -0.00082280685 -0.00021778002 9.332505e-05 5.9609665e-05 -0.0007130116 -0.0002509718 -0.00067981554 0.0011160969 -0.0011460277 0.00085758214 0.00088332884 -0.001337795 0.0012119705 -0.0012434055 0.0007969523 -0.0010174862 -0.0010196907 0.00056964834 0.0009671795 0.00019982543 0.0001896598 -7.3001516e-05 -0.0015725401 0.0011554466 0.0015228904 -0.001359205 -0.00010907476 -0.00089002255 -0.0002283298 -0.001171361 0.0013152277 -0.0014270081 0.0013804776 1.12878e-05 1.9604111e-05 0.0010039911 -0.0002767012 0.001381759 0.0010082817 -0.0002729093 -0.0004980512 0.00035240175 -0.0013985744 -0.0007818199 0.00021707613 -0.0015710578 0.0008608818 0.00094219553 0.0013556954 -0.00095152087 -0.0010010203 -0.0015903517 -0.0013526455 -0.00064551475 1.4983441e-05 0.0010966592 2.8719202e-05 -0.0005028933 0.0006524211 -0.00015874235 -0.0006314051 -0.0015809657 0.0016007863 0.00087547535 0.0011479664 -0.0011200667 -0.0009902114 5.3555286e-05 -0.0015046579 -0.0009874676 0.0007847163 -0.0010381248 0.00057506084 -2.959525e-05 0.0013134747 -0.000109023655 -0.0007757679 -0.0014874943 0.0005932499 0.0009378125 0.0010230705 0.00083389814 0.0008253539 -0.0014753498 0.00022113853 -0.0003283151 -0.00025709812 0.0010568218 0.0015132437 0.00031055324 0.0004666503 0.00038819513 0.0014834071 0.0011912413 -0.0003563627 0.0002841839 -9.350621e-05 -0.0014356246 -0.0015845505 0.00042375163 0.0010558348 0.00017358389 0.00012983804 0.00044693134 0.0007378082 0.0009272895 -0.00022588743 -0.00095993717 -3.3886477e-05 0.00091986224 -0.0015042486 -0.0015502116 0.00046960948 0.0010603273 0.001002849 -0.00015654211 0.0013517562 0.0016337255 0.0011824847 -0.0008394989
deepika 0.0006371695 0.00027014778 -0.0008798175 -0.00023001459 -0.0004720904 0.0007316657 0.0011714451 -9.54503e-05 0.00059344666 -0.00015191121 -0.0011336189 -0.00024619797 -0.0012127752 -0.00034035364 -0.00051337224 -0.0010839187 0.0016493981 -0.00034095455 -0.00032294952 0.00017731183 0.0012635735 -0.00058278785 -0.00045279379 0.001002035 -0.0004596319 0.00044027733 -0.0016118177 0.0008856618 0.0001968545 -0.0011984924 -0.00022207426 -0.00011673325 -0.00013101773 -0.0015079835 -0.0006208636 0.0009276726 -0.0009024148 -0.001618045 -5.1806866e-05 -0.000112137444 -0.001286581 -0.00024758236 0.0015021563 0.0001706021 0.0010124015 -0.0015953094 -0.0011814814 -0.0015250474 -0.0012970853 -0.0011650495 -0.0016240248 -6.5884e-05 -0.00023934954 0.0003266759 0.0005329881 0.00091930514 0.00032799772 -0.0005238414 -0.0014922594 -0.0005560515 -0.0010988368 -0.0004396858 0.0008140423 0.0011042268 0.00063127634 0.001640746 -0.000836444 -0.0012816517 0.0011930172 -0.00024477855 0.0014420688 0.0014612784 -0.00094756635 0.0010180066 -0.00052991085 -0.0010609411 -0.00058212737 0.00044950368 0.0010697375 -0.00081501063 0.00055437715 -0.00062037626 -0.00088656327 0.0014000675 0.0011562998 0.00025496347 0.00032492485 0.00019440427 0.0009195029 0.0013336443 0.0012270898 -0.00042883697 -0.00062962266 0.0009812379 0.0012894722 0.0013763898 -0.0012757524 -0.00017213337 0.00097489107 -0.0009455253 0.0009167964 0.001235565 0.0011834737 -0.000112657035 0.00037719804 -0.0008799562 9.058545e-05 0.00012225118 -0.0012465927 -0.0011658738 0.001503593 -0.00053570146 0.0010954266 -0.0010513886 -0.0003736506 -0.001409219 -0.0009077081 0.000741978 -0.0011477203 0.0005885187 0.0013566718 -0.0008615312 0.0011331713 0.00067911035 0.00080710795 -0.0008593955 0.0015453162 0.0016238658 -0.00049576553 -6.277398e-06 -0.00019205554 0.00027630717 -0.0011166788 9.675891e-05 0.00034759383 0.0015787584 0.0013880921 -0.0013467734 -0.00071770645 -0.0003014699 -0.00034384616 0.0007022155 -0.00041879952 0.0010304467 0.0013392358 -0.00046672876 -0.0008340291 -0.0006857861 -0.00059463625 0.0016095468 0.000118910844 0.00070127734 0.00037678823 0.0014953687 0.0009594822 0.0007728644 -0.0006066702 -0.001442295 -0.00034694283 0.0013612937 0.00091010396 0.00054562197 0.00073699834 0.0010616208 -0.00051102316 0.0007506466 -8.3593586e-05 0.0004583535 0.0004070244 0.0010453989 -0.00063850597 0.00033348743 0.0015015042 0.0011025988 0.0005210473 -0.00029297988 0.001603976 -0.0014176748 -0.00018721257 0.0015080244 -0.00090953783 -5.1683004e-05 0.0002658816 -0.001636297 -0.0002819868 0.00114467 -0.00036754855 -0.0013279272 -0.0016460291 0.0011009785 0.00077510293 -0.0003665145 0.0008945207 -0.00092737295 2.4813513e-05 -0.0008571508 -0.0002476403 0.0012018572 -0.0010869653 -0.0011273643 0.0002806534 -0.0006434703 0.00031505406 -0.0015412654 0.00083524006 -0.00042251308 -5.710348e-05 0.0013864647 -0.0015276917 0.00038969825 0.00050871755 -0.0004346661 -0.0016494959 -0.0012450537 0.001428699 -0.00081730983 -0.0007032138 0.00064190244 0.0011089315 -0.0008524933 -0.0015116851 -0.0008562371 0.00058414973 -0.0015253656 -0.0011685046 -0.0010307614 -0.00062668987 -6.276302e-05 -0.00080109364 0.0010943904 0.00058384356 -0.00014200524 -0.00021505212 0.0011348895 0.0015073931 0.00035000377 -0.0008595026 -0.0008465065 -0.0012972369 -0.0003198823 0.00088596693 0.0014395326 -0.0004847185 -0.00021041677 0.00028216207 -0.00014683395 0.00024377188 0.0015297648 -0.0003853142 0.0015948568 0.0015322146 -0.00028625666 2.3446593e-05 -0.001418491 0.00091735396 -0.0016690197 0.0016638709 0.0011776877 -0.00094655197 0.0015420516 0.001306207 -0.0012166067 -0.0015396369 0.0007641153 0.0013087934 0.00079642225 0.00061953755 0.0016062438 -0.0010901648 -0.0007513491 0.0009505701 0.00030142168 -0.0008513331 0.0015869361 -0.0009768073 -0.00117139 0.0016521742 0.0012885885 0.0014346606 -0.00045566124 0.001023149 0.0014879891 0.0011610107 -0.0014483621 -0.0010846092 -0.0014459841 0.001544899 0.0012906097 -0.00039831104 0.0006967368 -0.0016318082 0.0012834423 -0.0012834715 -0.0005638877 0.0014770253 -0.0014366185 0.0016113039 0.0011817344 -0.0006248422 0.00024148934
ranveer -4.9576174e-05 0.0011563996 0.0011647266 -0.001592355 0.0015192624 0.0015804584 0.0004985751 -0.00065344817 -0.00055866886 0.0010831465 0.0014099061 0.0008472425 -0.00012089808 -0.0011066712 0.00038131923 0.0016176284 0.00087947637 -4.3790584e-05 0.00107461 0.0006297907 0.00048808366 0.0015120747 -0.0016385667 0.0014271392 -0.0016042073 0.00033787874 0.00040556485 0.0013392861 -2.4434747e-05 -0.0014593005 0.00087512645 0.00015344392 -0.0013757002 0.00034490225 0.0012294865 -0.0008724087 0.0016538419 -0.0016486273 -0.0011518156 0.00019316835 -0.00079177803 0.00015267155 -0.0010761034 0.000999544 0.00093230506 -0.00020623815 0.0009048382 0.00012857298 -0.00096193026 0.0008737776 -0.00075513136 -0.0005668961 -0.00079268427 0.00061476516 0.0015321745 -0.00016280505 0.0004275491 -0.0007391024 -0.00042508022 0.0014911753 9.495093e-05 0.0006942343 -0.0006064997 0.001222767 -9.1086986e-05 -0.0012849763 -0.0013137568 -0.001120415 0.00035917945 -0.00040607655 0.0013533466 -0.0005470319 0.0015912378 -0.0014934179 0.0004282155 -0.00081716914 0.00091154524 -0.00075772725 0.00017471706 -0.0005458143 -0.0010764126 0.00027169872 0.0006255439 0.0006242561 -0.0015515189 -0.00074886327 -0.0014185807 -0.0005467404 0.00041755193 0.0013726255 -0.0003854905 0.0014803185 -0.0015510984 0.00070785644 0.0016384084 0.0010498695 -0.0014841962 0.0015912588 0.00011760515 0.0012826957 0.00020500133 0.0008528303 0.0009854819 -6.800491e-05 -0.00089085294 0.0016053127 -0.0003211849 0.0013808483 -0.00012232283 -0.0009689183 0.0016553869 0.0014265083 0.0012639301 0.00025429952 -0.00046142438 -2.3277076e-05 -0.0005234218 0.00034835676 0.00060286163 -0.000457626 -0.000562868 -0.00019928881 -0.00096019113 0.00016894532 0.0011513318 -0.0007850607 -0.00013770153 0.0002658759 -0.0014372622 -0.00012347312 5.26907e-06 -0.0011828421 -0.00044500246 -0.0015136665 0.00012071187 -0.0010427631 -0.00078694575 -0.00073189905 -0.0005448836 -0.0012764566 -0.0010830621 0.00036333912 -0.0012422432 0.0011560328 0.00019778329 -0.0011090458 0.0014251688 0.0006024792 -0.0002694621 0.0013449035 0.0015310154 0.0010142382 -0.0013035932 -0.001131273 -5.3648713e-05 0.00026583523 -0.0008472702 0.00046028488 0.0012940892 -0.0015479733 -0.001151054 -0.00041573707 0.0008248442 -0.00048506516 0.0008842312 -1.5619727e-05 0.00048067674 0.0007107281 -0.00051728485 -0.0006106576 -0.001608651 0.0010673869 -0.00072001154 -0.0013632135 -0.001486845 -0.0014586531 -0.00019794184 0.00067833596 0.0011629929 -3.5594923e-05 0.00032000677 -0.0007338198 0.00046837877 -0.0014150275 0.0014794647 -0.0015992519 0.00010141004 -9.18494e-05 0.0013473475 0.00058136974 -0.0008773857 0.00058647606 -0.0015541561 -0.00015765472 -6.36933e-05 0.0004286356 0.0014865207 -0.00011908287 0.0011207496 -0.0011651929 6.244425e-05 -0.0012486767 0.0010393229 -0.00038608903 0.0014257425 0.0014224256 6.900131e-05 0.0006455615 -0.00028246132 -0.0011438464 -0.00073787477 0.00013819506 0.00031520045 -0.00035765488 -0.0008173333 -0.0008881074 -0.00055930286 -0.001044069 -0.0015393691 -0.0009379476 5.945425e-05 -0.0015562162 0.0004971269 0.00096730987 0.0014869141 -0.0014317696 0.0010761537 0.00058929867 -6.5889612e-06 0.0012951762 0.00047436453 0.0014955667 0.0012232757 -0.00063566526 -0.00045394117 -0.0015899518 0.0010137508 -0.0013291176 0.00030463192 0.0006973468 0.00090055994 -0.0006945513 -0.0005592658 -0.00057495496 -9.509336e-05 -0.0013428461 -0.0007809697 -0.0004517626 -0.00089408574 -6.0893643e-05 -0.0016001996 0.00037373882 0.0011801403 -0.00050655764 0.0016402409 0.00034155714 -0.00067528716 -0.00146241 -0.00081006344 0.00086559105 -0.0009327529 0.0010739403 -0.00014725087 -0.00079374766 -7.8311656e-05 0.0011593263 -0.0010555686 -0.0012809775 0.00022771135 0.0013506135 0.0010514357 -0.0010124187 -0.00029214096 -5.9859653e-05 0.0014992163 0.0007637544 -0.0006381028 -0.0014089984 0.0005890493 0.00072470703 -0.0009702675 -1.1459873e-05 -0.00079085206 -0.000434059 -0.00021050619 -0.0008601213 0.0010362625 -0.0014366254 0.00020375894 -0.0006607732 0.00048209878 0.00056911825 -0.0015401457 -7.0577145e-05 -0.0007980231 0.0010296463 0.00043719585 0.0016171905 0.0016522642 -0.00039585886
wedding 0.0016152861 0.00023681622 0.0015337797 0.0012753267 -0.0016527778 0.0007424676 -0.0011120242 -0.0003323351 0.0015092411 0.00049848395 0.00041706435 0.00096307247 0.00069746835 7.3408504e-05 0.00032879846 0.0013217247 0.00019801577 -0.00030127284 0.00068474223 -0.00014720601 -0.0012205365 0.00039234228 0.0005114898 -0.0011714655 -0.0001841806 0.0014070354 -0.0006159083 0.000101315905 0.0011056991 0.0015306761 -0.0009107289 -0.00037821475 -0.0014254658 0.00019632753 -0.0003489821 -0.0016632279 0.0012682781 -0.0006388677 0.0008549891 -0.0013610321 -0.0016169273 -0.00046938803 -0.0012561982 0.00067682524 0.00017570294 -0.00024170177 -9.388722e-05 -0.0013022433 0.0014068919 -0.00042818981 -0.0015768394 0.0015803735 -0.00035115262 0.00091040327 -0.00026663684 -0.001193371 -0.0007220109 0.00024933275 0.00027553746 -0.0006573099 -0.0001894503 -0.0010797163 -0.001195879 -0.0014795653 -0.001398491 -0.0006450339 0.00016671377 2.2268474e-05 -0.001597758 -0.00013260441 -0.0013362888 6.1485836e-05 -0.000113141294 9.232168e-05 -0.0012828493 0.0015647855 0.0011104287 -0.0015369168 -0.0008866798 0.0013664077 0.0009246468 -0.0008532284 -0.0007036784 -0.0014316717 -0.00029845882 0.0009991721 0.00074140157 -0.00016280235 -0.0012600987 0.00037871016 -0.00094660826 0.00057267613 -0.00015120923 0.0009022503 -0.00029606934 0.0009220235 -0.000469144 -0.00088654744 0.0001603269 -0.0015953829 -0.0014311174 -0.0016491195 0.0006254572 0.001468318 0.0011666613 -0.0001829924 -0.0014969147 0.0009624631 -0.00016573603 0.0001033952 -0.0016421727 4.914233e-05 -0.0011804836 -0.00096285914 -9.908357e-05 -0.00066475157 0.00033602558 0.00090391893 0.0016149662 -0.00097084773 0.0012529367 -3.0589724e-06 -8.5726094e-07 0.0008370704 -0.0013802035 0.001069783 0.001030178 0.0003713443 0.0014541947 -0.0010094848 8.840121e-05 -0.0007507671 -0.00033710737 -0.0013885053 -0.0013888916 0.00014150028 -0.0009845563 -0.0010542121 0.0015389825 -0.0012287139 -0.0011468249 -0.000125003 0.0010290028 -0.0011965488 0.0003812014 -0.00056064135 0.0008354725 -0.0014477379 0.0010761474 4.3445794e-05 -0.001567795 -0.00038736363 -0.001539381 0.0013649896 -0.0008010538 0.00055752887 0.00014366042 -0.0015807888 -0.0016562601 0.0008710537 -0.00034382174 -0.0011183206 0.00080086733 -0.0006023161 0.0008972416 0.0013588092 -0.0011736795 0.0009988244 2.8231454e-05 0.0012930407 -6.8818576e-05 -0.00052416534 -0.0013058187 -0.00063403195 0.00035423084 -0.00054784963 0.00032283517 0.0001619811 0.0016020732 0.00044434733 0.0012763299 -0.0012511627 -0.00023363529 0.0016215665 0.0016696618 -0.0007789542 0.0006611155 -0.0010412676 -0.0005551354 0.0011949519 0.0016615661 0.00017776628 0.00043180276 -0.0002901655 -0.000910075 -0.0007576595 0.0013011885 -0.0010433221 -0.0007517465 -0.0013328046 -0.0011228337 0.0010492728 0.0014209301 -0.00028111433 0.00011385019 -6.0136386e-05 0.0011153407 -0.00091623445 0.0014919818 0.0009783612 -0.00080553716 -0.00026874908 -0.00080340117 0.00033743266 0.0002496745 -0.0003680096 -0.00019435432 -0.001240839 -0.00083781657 0.00082831364 -0.00059007254 0.0014019264 0.0008266731 0.00081329147 -0.0011937706 0.001669447 0.0010055773 0.0011035161 0.00052535924 -0.00014014315 0.0013141725 -0.0008161278 -0.0014502237 0.00047910155 -0.00040541036 0.0011347707 -0.0014545447 0.0010616403 0.0015748884 0.00014928139 0.00014034634 0.0003649108 0.0016452279 0.0007606214 -0.0005876775 -0.0009844109 0.0013766793 0.0016574481 0.0010973718 0.0011482936 3.5677465e-05 0.0007097721 0.0013663983 -0.0011651842 -0.00010675487 0.00088054605 0.0014422078 0.0014138852 -0.0012064505 0.00033434026 0.00037283785 2.3552935e-05 -0.000674969 -0.0012552049 0.0014485294 0.001182924 0.00022248985 0.0010961682 0.0009223862 -0.00045571203 0.0010439705 0.0005069835 -0.00012581234 0.0012289385 -0.0012369028 0.0012173728 0.00017871658 -0.0011815891 -0.00018894528 -0.0015986298 0.00028630203 0.0009978288 0.00090786343 0.00143491 0.0005175518 0.00030390604 -0.0014020494 0.00050234713 0.000656212 -0.0001540102 -0.0003449413 0.0008417806 -0.0005173816 -0.0006360332 -0.000660747 0.0014338956 0.0013816361 -0.0014408211 0.00010826853 -0.00094234326
chopra -0.000925374 -0.001064617 -9.515347e-05 -0.0003031685 -0.0004196192 0.0006766084 0.0005041563 -0.0014459685 -0.00019312548 -0.0011158668 -0.00095972547 3.759625e-05 0.00101982 0.00063324365 -0.0007421147 0.00017520762 0.0014825915 -0.0011234037 -0.001388815 0.00039612644 -0.0012737777 0.0013615442 0.0015471168 -0.0011873362 0.0010514883 -0.0010987716 -0.0001723163 -0.000115235736 -0.0007532596 0.00082273217 0.0010037876 0.0005947983 0.0012681509 0.0007329531 -0.0011863952 -0.001582941 0.00089510524 -0.0009212159 0.000609298 -0.001533687 -0.0011305782 0.0005423367 0.0012823628 0.00072532444 0.00086821365 0.00042905496 0.000622453 -0.0012850214 0.00029750136 -0.0013552796 -0.0011974622 0.00027849287 -0.00087417994 0.00065909786 -0.0010791115 -0.0011317084 -0.0012337692 -0.00063929334 -0.0014740815 -0.001313021 -0.00029476263 9.015422e-05 -0.00021731875 0.0009661323 -0.0010710331 -1.7779586e-05 0.00081602373 0.0016030121 0.0002768118 0.0012910576 -0.0013301942 0.00064502575 -0.0011192126 -0.0011252684 -0.0015918359 9.8802695e-05 -0.00046833264 0.001405293 0.0003953595 -0.0006198377 -0.001486075 0.00073726237 0.0015165415 0.0005793149 0.001377305 -0.0013140915 0.0008760545 -0.001384904 -0.00043513242 0.0006076176 0.001333039 0.0010999447 0.0014245834 -0.00016611128 -0.0003722665 0.0007096524 0.0009492362 -0.0012202031 0.000251208 -0.00038495625 0.00029275424 0.001468494 0.0016275708 -0.00075580284 -7.237532e-05 0.00055676594 0.0014619441 -0.0016083699 0.00071519025 0.00036582674 -0.0010358643 0.0006948241 0.00029576558 0.0003504469 -0.0016826029 0.0015974151 0.0001487184 -0.00024748026 0.0013342097 -0.0002543901 0.00033354404 0.0008540081 0.0014851278 -0.00025047868 -0.0011649935 0.0016338445 0.0013801415 0.0015751639 -0.0008385251 0.0012918769 0.0010742026 0.0015395517 0.0010901866 -0.00077945436 -0.00051074167 0.001289902 0.0014774145 0.00086362055 0.0006015889 -0.00085494004 0.0009861185 3.4297984e-05 0.0014378012 0.0007354805 0.00042684548 -0.00026957877 0.0011470139 0.0012938463 -0.0004570025 2.568667e-05 0.0012319565 0.00085835374 0.0012915017 -0.00035060887 -0.0012206532 0.001132237 -0.0012882346 0.0007513747 0.0011820587 0.0006025814 -0.00069178524 0.00030378846 0.0015629494 -0.0013415033 -0.0012221222 9.5044896e-05 -8.095642e-05 0.00083059556 0.0015754126 -0.0005074626 8.7479486e-05 0.0007765914 0.00091083086 0.00060992496 -0.00070848217 -0.0014542553 -0.0004217828 0.0004785119 0.001194224 0.0004052052 0.0007749716 -0.0002842699 0.0016462876 -0.00017351097 -0.00021671777 -0.0011405479 -0.0010399907 0.00046162415 -0.0016574261 -0.0013238981 -0.0013168565 0.0014681586 0.000635285 0.0009527168 0.0015438558 0.0016398116 0.0008992521 -9.973836e-05 0.0009768696 0.00041061826 0.00017575672 -0.0014987751 0.00011316784 4.185632e-05 0.001159954 0.0010553302 0.0006521923 0.00017828915 -0.0014751058 -0.0014005838 0.0011087176 -0.0016204198 0.00020706507 -0.0015240831 0.00032093583 6.420791e-05 -0.00016596027 0.000586459 -0.0015702471 -0.00019144478 0.0015999052 -0.00015299572 0.0014843604 0.000496767 0.00071658485 -0.0009846204 -0.001274422 0.00049456675 0.00064905564 0.00011515 3.8490547e-05 0.00079029426 0.0012604474 0.0015961869 -0.0005326445 -0.0004086921 -0.0005768675 0.001436125 0.001494309 -0.001297586 0.0004631984 -9.681713e-05 0.00071916654 -0.0016443413 0.0005634146 0.00016359087 -0.00043459836 -0.00010313592 0.0013788242 0.0012479223 0.0012327511 0.0014289132 0.0003611269 -0.00074293546 -0.00061608665 -0.00046923177 0.0009475619 -0.0010411874 -0.00017255647 0.0010625436 0.0002745661 -0.0015253924 0.0005335269 -0.0013237686 0.0012652989 0.00055785815 0.0013138884 -0.00149341 0.000113004004 -0.00041315876 0.00020843314 -0.00026599737 -8.5976426e-05 0.0011011086 -0.00017859702 -0.0007788329 -0.0001110513 -0.00070815964 -0.0007350408 -0.00083979964 -0.0014598712 0.0007854485 0.0010037861 0.000717337 -6.6406974e-05 -0.0008244663 -0.0014728769 -6.2348685e-05 0.00096235605 -0.001456168 0.0006814119 -0.0010776832 -0.0015319457 0.0016432371 -0.0011382453 -0.0010186142 -0.0013235951 5.4648397e-05 -0.0007925015 -0.0010747266
sharma 0.0003639224 0.0010565718 -0.0006611568 0.0014803018 -0.0011556001 -0.0014973308 0.00030257704 -0.0010697854 0.00062507536 -0.0014393007 -0.0006966161 0.00024265335 0.00076266925 -0.0015618338 -0.00047271606 -0.0007790576 -9.600806e-06 -0.0010267668 0.0014659633 0.00077842956 0.0014641361 -0.0014387053 0.0015427177 0.00031999586 0.0008306288 -0.0011840983 0.0009607047 0.0015337802 -0.0011723791 -0.00085294124 -0.0006182258 -0.00050868094 -0.0011343133 -0.0013772022 -0.0013926466 -0.0010396517 -0.000703486 -0.0006598681 0.0015947032 0.00021715503 0.0010384065 -0.0016060717 0.00085155026 0.0015005044 0.00085856917 0.0015339009 0.0009816267 0.000698726 0.0011636093 0.00060281664 0.0012159583 0.0012917452 0.0015388608 -0.0008747505 -0.0013149796 -0.0010127486 -0.00027446268 -0.0009132509 0.00077604206 -0.0010121241 -0.0015263448 -0.00067433086 0.0006063541 0.0016496705 -0.0015418135 -0.0010678304 0.0016057957 -0.00041183466 0.0011550382 -2.8382042e-06 -0.00053398125 -0.0015562735 -0.0011566703 -0.0006667677 0.00090317184 8.835487e-05 -0.0006394267 0.0010016208 -0.0009827549 -0.00052541046 -0.0014051474 0.0015951266 -7.8756784e-05 9.313126e-05 -0.0010730014 0.001210619 0.0012325363 0.0015040099 -0.0008007828 0.00081093673 -0.0012197258 0.0006934976 -0.0001716567 -7.425057e-05 -0.0012634922 -0.0014293167 0.0013640161 0.0016675863 0.00025382958 0.0012032505 -0.0008701912 0.0010936803 0.00030975026 -0.0014016245 -0.00021878694 0.00071181357 0.0013022897 0.00041971338 -0.00045901805 0.00011070837 -7.660099e-05 0.0014899556 -0.0015031156 -0.0001429692 -3.9546914e-05 -0.0006876791 0.0010598226 -0.0012403381 0.00021494782 0.0014156632 -0.0009974338 0.00030705833 -0.00065062376 0.001140125 0.0012796734 0.0015794288 -0.0016411468 0.00089088734 -0.00030662896 -0.0010161798 0.0010142075 0.0007659159 -0.0013814747 -0.0012347809 0.00042739525 -0.00083449954 -0.0002341267 0.0016198473 0.0008963271 3.1387182e-05 -0.0014413841 -0.0013612858 -0.00052456977 0.00027986986 -0.0007254936 -0.0002765035 0.0008066614 0.001662845 0.00089421246 0.0002929378 -0.00095004035 0.00025676898 -0.0012658095 -0.0012015385 -0.000572447 0.00012891175 -0.0012778788 0.0011024199 -0.0010260862 -0.00034149832 0.00076646416 -0.00023577598 0.0013673931 -0.00087820814 0.00043342306 -0.000255657 0.0010550354 -0.0004585761 -0.0012143777 -0.0011361303 -0.0001672221 0.0012740775 0.0016110174 -1.0305215e-05 -3.0272942e-05 -0.0005676431 -0.0014991739 -0.0003515479 0.00032614853 -6.25257e-05 0.001234346 -0.00078785035 0.00042348827 4.6190646e-05 0.00045459127 -6.0085586e-05 0.0015919231 0.0012399897 -0.0010467441 0.00030935294 -0.00016804872 0.0001800442 0.0009947171 -0.0009808203 -0.00058257976 0.001396505 0.0005119541 -0.0013778649 -0.00023153941 -0.00011734856 -0.0004573303 -0.0005832375 0.0014763754 -0.0014585936 -0.0013965714 -0.00049629685 -0.0012149255 0.0010387572 -0.0010225743 -0.0013160734 0.0001393562 -0.00013461341 0.0006002737 0.0007956678 0.00022279959 -0.00052372954 -0.0012558523 -0.00132919 0.001255532 -0.0009188934 0.0008463068 0.0013600454 -0.0015567935 -0.00020550146 0.0004239803 -0.00025125514 -0.0001745553 -9.6048e-05 -0.0005712044 -0.0010956079 1.0427471e-05 -0.00066395133 -0.00012997029 -0.0016644408 -0.0012522991 -0.00025433837 0.0008214466 0.0003997837 0.0014635787 -0.001086154 0.000496024 -0.00022938497 0.00010141693 0.0010328236 0.0014202612 -0.0013126702 -0.0012334043 -0.00020924048 0.00035771343 -0.00041905305 0.00089443394 0.00049287576 0.0008891148 0.0006701032 -0.0006960676 -0.0012597757 0.0014426394 0.0008010597 -9.5024974e-05 0.00083178125 -0.00021153185 -0.00025495005 -0.00064108736 -0.0011862031 0.0015247867 -0.0011055509 -0.0008685655 0.0010896164 0.0015545777 0.0009578039 0.00044163072 0.00039784683 -0.0010592283 -0.0015192702 -0.00048115166 -0.00011790999 0.00010819935 -0.00025939988 0.00074135145 0.0012714706 0.00047562874 5.394284e-05 4.554958e-05 0.001075523 -0.00063277304 0.0013539094 1.8307192e-05 0.00059183437 -0.0016192046 -0.0004700318 -0.00048197558 0.001546624 0.00082763715 0.0012046379 0.0011788532 0.0016246919 4.2066178e-05 0.00096423767 0.00043336043 -0.0010596811
weddings -0.0007710167 0.00037879247 0.0002456872 -0.0012416109 0.0012729974 0.0016564229 0.0012112933 -0.0006045963 0.00074473047 -0.0012335898 -0.00031749925 -0.00086130603 -0.00036238195 -0.0013934463 0.0012253068 0.0006037566 0.00031038775 0.0011622804 0.00081139646 -0.00016567197 0.00023161893 -0.0013640968 -0.0012318981 0.0008027964 0.00082385243 -0.0010422514 0.0008177428 -0.0007899 -0.0012189471 0.0009053837 0.0014560382 -0.00018526852 -0.00017878928 -0.0012393785 0.00016101093 0.0006084899 0.00087286514 0.0002897583 0.0015521513 0.001437211 -0.00092304015 0.00038629284 0.0010433024 0.0002711141 0.0007188852 -0.000994077 0.0013209926 -0.001232572 -0.0002962603 -0.001427701 0.0015723174 0.0012788677 0.0016523964 -0.0001407485 -0.00015411746 0.0005412298 0.0007231443 0.0013532294 -0.0014305009 0.0007947011 -0.00061710365 -0.00047376033 0.00087518914 -0.001536761 0.00083091855 -0.0007391751 -0.00089606264 0.0013430102 0.00029774508 -0.0006688003 -0.0007228286 0.00015491096 0.00045677734 0.00035240402 0.00048358995 -0.0010096866 -0.00050226017 0.00058431114 -0.00072729617 0.0016389808 -0.0016524416 7.6908625e-05 0.00026247383 -0.0001568598 -0.0009111467 -0.0005150972 0.00091089285 0.001016962 0.0008908699 0.0003621016 -0.0016258109 0.00026103418 -0.0011842345 0.0015823846 0.001088097 0.0008802552 -0.0012954278 -0.0010571728 -0.00024226938 -0.00019195314 -0.0014658596 -0.00075247197 0.00044022157 0.0008882304 0.00078165944 0.00045036222 -0.0015689265 0.001124253 -0.00046254712 0.0013895594 0.0011026192 0.0010385059 0.00018954254 0.00049900403 -0.00034776118 0.0016464506 -0.0013943798 -0.00127358 0.000410031 7.528462e-05 0.0009598164 -0.001258248 -0.0007713947 -0.0002450001 -0.00068950525 7.924943e-05 0.00012395097 0.0012129972 0.00024120434 -0.00023696675 -0.00052626844 0.0011289738 0.0011036806 0.0015059663 0.0012096884 0.0007573649 0.000718171 0.00052050623 0.00088705093 -0.0009623224 -0.00140454 -0.0014697423 -0.001265372 0.0015280374 -0.0013566299 -0.00065132504 -0.0010283823 0.001669376 -2.3176432e-05 -4.8820883e-05 0.00062131265 -0.0013932855 -0.0016249127 0.0005635106 -0.0011120107 -9.218443e-06 -0.00012536385 -0.001195533 -0.0006132931 0.0006257281 0.00039271818 -0.0013737349 0.0003858964 0.0009302146 -0.0006378399 -0.001328576 0.00033764265 -0.0013182824 0.00020534279 -0.000459874 0.0007661928 0.0003617314 0.0012398432 -0.00052065565 -0.0003476379 0.00010779081 0.00046058692 0.0007617413 -0.0006551901 -0.0010639179 0.00026930158 0.0012610982 -0.0014315092 -0.001107611 -0.0004783068 -0.0009020622 -0.00014712951 2.1645285e-05 0.0011793202 -6.705689e-05 -0.0016456397 -0.0005077803 0.00048270554 -0.0015470617 -0.00044331115 -0.0014456093 -0.0012389328 0.0012978407 0.0011835502 0.0005154391 -0.0007247722 0.0015143865 -0.00027005206 -0.0007634768 0.00020132316 0.0014859866 -0.0014742642 -0.0016055715 -0.0011256821 -0.00047615735 8.572546e-05 -0.0016174887 -0.0010255056 -0.00082620274 -0.0011632822 7.923341e-05 -0.0012912079 -0.00040958868 0.0006136133 0.001310904 -0.00021048727 0.0009819199 -0.00042564524 0.00058404694 0.0012091919 -0.0015160445 0.00040440384 -0.00048790255 0.00069280976 -0.0005437874 0.0007331274 0.0006298549 0.0016470137 -0.00012120146 0.0008551378 -0.0012307588 -0.0015135763 0.0008951056 0.0013663244 -0.00056387525 0.00046330877 0.0013794943 0.00044055973 0.0015279826 4.9531136e-05 7.265792e-05 -0.00028962982 0.00012878951 0.0004192107 -0.0014326125 -0.0012504498 -0.001508347 0.000468588 -0.0003066238 -0.0011813241 0.0008908586 -0.0012092281 0.0016379986 0.0014542309 -0.001151116 0.00044717794 0.0005836773 -0.0016248361 0.00035455104 -0.0013534582 0.00023006689 -0.001669978 -0.0003102238 0.0005672008 -0.0014065172 0.0007281036 0.0012193791 -0.0005777102 0.0011519998 -3.492161e-05 0.00033332224 -0.00014722996 -0.0001476564 0.001317869 -0.0014008043 -0.0015837306 0.00074474287 -0.00023415257 0.00073586125 -0.0012939582 -0.0006893072 -0.0013488603 -0.000460046 -0.00039379537 3.7820668e-05 0.0006260935 0.000756166 0.0005726371 0.0011962804 0.00021563082 0.00023849885 0.0015466566 -0.001093577 0.0005766352 0.001409839
jonas -0.0011664022 -0.0008061149 0.0006624872 -0.00086372765 -0.0013877063 -0.0008570964 -0.0008324365 0.00020313404 0.001126415 0.00038408785 -0.0010747075 0.0012849787 0.00054174924 -0.0014417911 0.0010160848 -5.8430298e-05 -0.00015858188 3.8372145e-05 0.0013223558 -0.0015696896 0.00024506342 -0.0011774366 0.0008896011 -0.00037462453 0.00032519415 -0.00074528856 -2.0072559e-05 0.0010936183 0.0007659143 3.7144866e-05 -0.0016151449 0.0012023596 -0.0011133591 -0.0016719704 -0.0011326722 0.0013806219 -0.00058542594 -0.0009493982 0.0014126989 -0.0015598639 -0.00067276653 -0.0014725799 0.0009630297 0.0008889669 0.0008234607 3.6013676e-05 0.000173514 0.00063204713 -0.0013077722 -0.0005158513 0.00035172133 0.0014476203 -0.00086165394 4.821523e-05 0.000988059 -7.245379e-05 0.0008711336 0.00043231924 0.0010237371 0.00017691689 0.00049704575 0.0006948703 0.0012449587 -0.0015975942 0.0010131997 -6.699254e-05 0.0012506148 -0.00016981698 -0.00014661734 0.0015232698 -0.00035907497 0.00017952398 0.0015135383 -0.000115221555 -0.0015362507 0.001420148 -0.00074917095 0.00084847654 -0.0011225723 0.00016380615 0.00084071 0.0004003349 0.0010962632 -0.00017599817 -0.0015032586 -0.00047733006 0.0012787005 -0.00043138984 -3.1398835e-05 -0.00057453377 -0.0012707983 0.0009445927 -0.0011301918 0.00090536993 0.0011717203 -0.00027498938 0.0013158786 0.00040467596 0.00086125144 -0.00028781514 0.0006205002 -0.001582097 -0.0014264281 -0.00026243032 0.0012493038 0.0014594572 -0.0007380989 0.0009311946 0.001162169 -0.00046022038 0.0008882307 0.0008880153 0.0014037184 -0.00019218317 0.0003180345 0.00087176607 -0.0014686736 -0.0010118097 0.0004185227 -0.0016299372 0.0007959385 0.001612379 0.0002156802 0.00021487148 0.0012084311 -0.000642594 -0.0005411234 -0.00059803436 8.943145e-05 -0.00033011098 0.0007466514 0.0011092862 0.0009913268 -0.0014806176 0.0007427218 0.0003435058 0.00055206066 -0.001074285 0.0008225428 -0.0007047501 -0.0015730809 0.0008366998 -0.0014703772 -3.8997627e-05 0.00045409682 0.00031721662 0.0008227116 -0.0007073817 -0.00026248881 0.00017276744 -0.0011553053 -0.0010852512 0.0010142127 -0.0003395253 0.00078555726 -0.0011294575 0.0006978636 -0.0010916186 -0.00097435387 0.00054399937 0.0006476427 0.0014570096 -0.0014100932 0.0008587952 0.0014180605 -0.0009888144 -0.0013350579 -0.00057699776 -0.0015965913 -0.0006505928 0.0002881317 0.00016275121 0.0012430116 0.0013314716 0.00017015444 -0.001252633 -0.00057624996 0.0012367695 0.0008208139 0.0014846398 0.0014707793 -0.0006191216 -0.00135281 0.00073951005 -0.0004646386 -0.00097193936 -0.00082064955 -0.00018943385 -0.0014054857 -0.00029807864 -0.0007108056 0.0013816202 -0.00055609125 -0.0011747404 0.00010086453 -0.00078039337 0.0011987134 0.0014654095 0.0007529808 0.00037114948 0.00068352086 0.0008570641 -7.857314e-05 -0.0011815818 -0.0011352706 0.0013711173 -0.0013687687 -0.000451507 0.00035663415 -8.6706896e-05 -0.00021526458 -0.0012050815 0.0012562152 -0.0013721486 0.00077104365 0.0009761218 0.0011343571 -0.0004971179 0.00033913692 0.0005607264 -0.0011838895 0.00085002714 0.0009976274 0.00020233582 0.0006624519 0.00039896552 0.00087459513 0.0013634968 -0.0004322009 0.0003050968 0.0012338395 0.001242964 0.0014127825 0.00028603707 -0.0016070923 0.0012489831 0.00069958245 -0.0006877938 -0.0009639912 -0.0014669977 0.00052773167 -0.00089571567 0.0007141571 0.0009242023 -0.0006719135 -0.0014882726 0.0015251952 -0.00042100585 -0.00011446386 0.0009884287 0.0015328864 -0.001471244 0.00085230055 0.001275094 0.00022870657 -0.00017507316 0.0011924431 -0.0001370046 -0.0007903393 0.0014534887 0.00036513418 -0.0010328962 0.0014177745 0.0006718899 0.00036085883 -0.0007877829 -0.0015167372 -0.00074075884 0.0013349139 0.0001647928 0.000116190924 -0.001273235 -0.00018155781 -0.00032821373 -0.0005214878 0.0015655619 -0.0005937653 -0.00031039352 0.0008638918 -0.00080896483 0.0007573222 0.00046441072 -0.0015309657 -0.00088434975 -0.0013372219 -0.0010959692 0.0010205748 -0.0016111851 0.00084909744 0.0014596108 0.0007152628 9.266967e-05 0.00012596489 -0.00045759292 -0.00056704815 0.0011788273 -0.0007569507 -0.0003995576 0.0014401813 0.0006220619
kapil 0.00042579044 0.0011840883 0.00048282725 -5.3401385e-05 0.00091012265 0.0008613728 0.0015316097 -0.0010117607 -0.00033178023 -0.0013692369 -0.0013607617 0.001652786 -0.0003571321 -0.0006207652 0.0004866296 -0.00045751967 -0.0003903043 -0.00019976613 0.0011150681 -0.0008519265 0.00010008039 -0.0010799179 -0.00044959513 0.00041011168 -0.0011746028 -7.075923e-05 -0.00094608497 0.001432707 0.00026028784 0.0014995382 0.00025338182 -0.0015341949 -0.0004723468 0.0004984954 -0.0016120027 -0.000106393694 -0.0015615994 0.0015575392 -0.0006210771 0.00019297635 0.00019675837 0.00073638366 0.0014054416 0.00016126638 -0.0013499573 -0.001614068 0.0014801255 -0.00017510912 0.001252141 -0.0015190241 -0.0009089695 0.0013646049 -8.264655e-05 0.0015777241 -0.0009482151 0.00086464314 0.0011331515 -0.00010339995 -0.0003966232 0.0005427544 0.00033288045 -0.0011785678 0.00081460853 -0.00043204208 -0.0002790619 0.00038801067 -0.000287052 0.00028132924 -0.0011019615 -0.00047655884 0.00022867705 -0.00096331426 0.0012733852 0.0009691294 0.001039093 0.0007981426 -0.0013867561 -0.0005521386 0.0002469671 -0.00015594761 9.5721916e-05 0.0011448327 -0.00032205423 0.0015491643 5.7879748e-05 0.00051122677 0.0011768669 0.0003138559 -0.00034850312 -0.00040058038 0.001088651 0.00059813756 -0.0005543317 -0.001660213 0.0014991001 0.00093979854 -0.0007379619 -0.00064290426 -0.0008229365 -0.0010075808 0.0011487922 -0.0003414476 -0.00021236128 0.0014884368 0.0009385204 -0.0006066621 0.00072217354 -0.0013192416 -0.00012200858 -0.0009130215 0.0014758785 -0.000951513 -0.00043738255 -0.0009776426 -0.0005407473 0.00018532522 0.0013470929 0.0013059763 0.0005651074 0.0005050685 -0.00046365295 0.00040631875 -0.0007219802 -0.00059510383 -0.0010288059 -0.00014986376 -0.00050813984 -0.00041525936 -0.0007578357 -0.00016875888 0.001224601 -0.0012040082 0.00076513796 0.00013007424 -0.00035996095 0.00014532132 -0.0010097154 -9.1378606e-05 0.0006964652 -0.00019712692 -0.0003341995 0.0005202482 -0.0003472711 0.0008650848 0.00073263765 0.00015403965 0.0012121904 -0.00049849343 0.0013205206 -0.0013140804 0.0002082037 7.237314e-05 0.00031854116 0.0013657353 0.0005025416 0.0002267316 0.00083886733 0.0006781512 0.0015426738 0.00024240956 -0.0009209632 0.0015662202 -0.0010152904 0.0014428941 0.0012040839 -0.00053351437 0.00013880356 -0.0009790185 -0.0012027592 -0.0008776127 -0.00066564145 -0.0009648937 2.7235263e-05 -3.4979203e-05 -0.00010109206 0.0002988975 -0.0011641923 0.00030331078 -0.000609785 0.00094596937 -0.0010412904 0.0007334308 0.0010769578 -0.00071376114 -0.0006516866 -0.00115942 0.0015837332 -0.0007037427 -0.00020829367 -0.0008589928 8.457728e-05 -0.0011318187 0.00037563292 -0.0004746117 0.0007724262 0.0013849316 -0.00027378136 0.00042772235 0.0011060687 7.9936806e-05 0.00028741884 0.0010650291 0.00045950274 0.001042448 5.828399e-05 -0.0016245672 -0.00090091664 0.00028210558 0.00090396556 0.00085937034 -0.00047388035 -0.0008475449 -0.0016217453 -0.00074983697 0.00014206153 0.001304463 -0.00034608375 -1.5601065e-05 0.00084310793 0.00031214143 -0.0015156285 0.0008670409 -0.0015187713 -0.000513041 0.0011526832 0.0005764833 0.0014288193 0.0010500149 -0.00045214634 0.000538829 0.00012872896 -0.00015017828 0.0006856215 -0.001453204 -0.00057121535 -0.001611371 0.0001879955 -0.00041401564 -0.00028161533 0.0009106251 0.001475457 0.00077945413 0.0007482993 0.001002813 0.0011063172 0.0009876622 -0.00031233433 -0.00029243008 -0.0012565353 -0.0013241724 -0.00035780136 -0.0013231925 0.0015633537 0.0009314509 -0.00039295317 2.444294e-05 -0.0015432589 -0.0006878418 -3.219734e-05 -0.0013278914 -0.00094971154 0.0010272427 -0.001330772 0.0006722489 -0.00031175348 0.00020385794 0.0010103808 -0.0007084483 0.0007510456 -0.0006605264 -0.0013194695 -0.00040318212 -0.00044554935 -0.0007418161 1.022906e-05 0.0009837986 -0.00016098135 0.0014431466 -0.00037706495 0.0004385039 -0.0011692115 0.0007584841 -0.0010629313 0.0011571498 -0.00040513047 0.0012951794 -3.182729e-05 -0.001441097 -0.001531768 0.0010708587 -0.00092254655 -0.00075425004 0.0011345763 0.0014307657 0.00022354437 0.00044667482 0.00048736474 0.00095554336 0.0013220995 -0.0012789054
ginni -0.0010320625 -0.0015522568 4.951935e-05 -0.0013595453 0.001664011 0.0011889809 0.0010332402 0.0010065997 -0.00063354854 0.0009171126 0.0013854196 -0.0014589591 -0.0016267464 -0.0016141562 1.076587e-06 -0.0007460819 -8.509582e-05 -0.0003637078 0.0011174341 -0.0012382738 -0.0008909761 0.00016992 -0.00040105212 0.000947239 -0.0014889437 -0.001589984 -0.00062200584 0.0015254857 -0.00041061628 0.0012961618 -0.00070742134 -0.00090907735 -0.0014160728 0.00062750326 0.0003578013 -0.00093537185 0.00074753136 0.0008828384 -0.00063456496 -0.00047294566 -0.00026968325 -0.0005714212 -0.00034665054 -0.0002939854 -0.0013325295 -0.000712467 0.0015820265 4.2343232e-05 -0.0013843955 -0.0001441496 -0.0011766849 0.0009452601 0.0005163231 0.000874812 -0.0008941221 0.00019812498 -0.0001926064 0.00040854194 -0.0012242608 -0.0015549613 -0.0005437333 0.0009080988 8.733744e-05 0.000557917 0.00039896258 -0.00024134033 0.0012007076 -0.00059460563 0.0014601718 -0.0015705512 -0.00021928054 -0.00097580586 -0.000654033 0.0012024328 -0.0011927262 0.0002665449 -0.001171827 0.0003168727 -0.00081657554 -0.00057047536 -0.0010972343 -0.0011953157 -0.0016357612 0.0007682433 0.0009722735 0.000581323 0.000100537996 -0.00078544667 -0.000204916 0.0002755007 -0.001531226 -0.0008479389 0.0013080401 0.0011332746 0.0007043412 0.00041240404 0.00061212986 -0.0007057933 5.0165985e-05 -0.0010062745 0.0011416 -0.0008607096 0.0015633134 -0.0010627747 -0.00054090406 -0.00076694705 0.00020624761 -0.00011629692 0.0009981833 0.0013420846 -0.0014333475 0.00018002081 -0.0010901373 0.0010561108 0.00013681171 -0.0014623519 0.0007744975 -0.0004473701 0.00048062808 0.0009036908 -0.001461017 6.663005e-05 0.0008462233 0.0010515235 -0.0010454021 -0.0012734457 -0.0011825805 -0.0005185849 -0.0007339732 0.0015379137 0.0011452815 -0.000780581 0.00062608067 -0.0007706176 -0.0004927508 0.0005135262 0.0001897158 0.000779998 -0.0011270767 -0.00023020388 -0.00075516367 0.0013016432 0.00043658138 0.0012923945 0.001249681 -0.00026099646 -0.00038091416 0.001056527 0.0013930004 -0.0012958971 0.0004307261 -0.0016163231 2.4827514e-06 -0.0014468976 0.0011340526 -0.00033115988 0.0008719263 -0.0013791639 -0.00031715934 0.0013528205 -0.0012751825 -0.00071987475 -0.0012886688 0.00012090839 0.00068294647 7.587173e-05 0.00030742772 -0.0008780237 0.0003859441 0.0012793605 -0.0009383515 -0.0002529786 -0.0013104591 0.0013449535 -0.0012002899 8.93152e-05 -0.0012522925 0.0003581749 -0.00063588703 0.00047758795 -0.00059972634 -0.00032627143 -0.00041444186 0.00036737628 -0.0005075239 0.0004211154 -0.00094228465 -0.00028569333 0.0014861199 0.00010407444 4.0581508e-05 -0.0015631983 -0.0008735079 0.0007615548 0.0013004413 3.1036423e-05 -0.0012197691 -0.00029600892 0.00073175784 -0.0006373809 -0.00021201107 0.0011661225 0.0014098448 7.839507e-05 -0.0003072057 -0.0014852327 -0.0015021423 0.00061139173 -0.0013552081 0.0010651137 0.0003897381 8.931867e-05 -0.0003798348 -0.0002460634 -0.00074641703 0.00012632046 -0.0007791292 0.00017436424 -0.00089171476 0.000537044 -0.00029927664 0.00081286195 -0.0016571103 0.00075895624 -0.0004888447 -0.0014325737 0.00034256902 0.0016396138 -0.0011174985 0.0004228214 -0.0008524314 0.0014993227 -0.0007505397 0.0010050966 -0.00072121684 -0.0014182385 0.0012196304 0.00023832801 -0.0006384355 0.0009657962 0.0006917808 -0.0012719291 1.2665144e-05 3.330299e-05 0.00095927285 0.00083360577 -0.0011492873 9.8152756e-05 0.00083091436 0.0007498799 0.0011650342 -0.0006825593 0.0012708938 -0.001020232 -0.00077097287 -0.00033561324 0.001565401 0.0015103377 -0.0007849695 -0.0015180253 -0.0001616775 0.0001967361 0.0013860691 -0.00011797294 -0.00011301717 -0.0007185104 -0.00014316103 0.0014630894 -0.000978118 -0.0010771339 5.6538294e-05 -0.00044871672 -0.0007867535 -0.00057522237 -0.0014233326 0.00018992963 -0.0007084943 -0.0015171153 -3.7561495e-05 -0.0013302368 -0.0013736247 -0.0004253923 -0.0011349509 0.000520626 0.001561676 -0.0005963524 -0.00035009178 -0.0013081663 0.0012301047 -0.0009909848 -0.00046262163 -0.0014183463 -0.0014128118 -0.001606406 0.0009967687 -0.0013898436 -0.0016385823 -0.001215504 0.00036931143 -0.0007865372
chatrath -0.00030258045 -0.00017563821 -0.0015107703 -0.0016133299 -0.0010960922 -0.0016267358 0.0005410453 -0.0011117177 -0.00080265047 0.0016622051 -0.00092598266 -0.00094624667 0.0010132579 -0.0011487148 -0.0012197522 0.001393865 0.00029876953 -0.0007893647 -0.001409329 -0.00087356206 0.00032970036 -0.0015248891 0.0014881695 3.5298486e-05 -0.00035720013 -0.0007594471 0.00041107312 -0.0014699781 0.00040492797 0.0005767726 -0.0010875266 -0.00052999373 -0.0010561987 -0.0003329959 0.0014609022 -0.0015555572 0.0006050105 0.00047309272 0.0007100223 -0.0014043939 -0.00078329555 0.0008137928 -7.1256065e-05 0.0016720339 0.0013206606 -0.0007124571 -0.0008894022 0.0011373244 0.0011473005 0.0015785897 0.0014001622 0.00012570119 0.0009017779 -0.0011670021 0.0011745488 0.0006542467 0.0005653064 0.0003298858 -0.00013326707 -0.0003024411 0.000904329 0.001417987 0.0010542764 -0.0014045774 -0.0010275746 0.00020996026 0.0005732926 0.0015064762 0.0003124039 0.001165908 0.0012927831 0.0015679878 0.0015559011 -0.00021424885 -0.00065072783 -0.001512583 0.00020809287 -0.0012497809 -0.00032571531 -0.0007053714 0.000981883 0.0008486337 -0.0014458122 0.00078539934 -0.0005630321 0.00035609415 0.00071593234 -0.0015536821 -0.0003692293 0.0012493888 4.8911494e-05 0.0012004237 -0.0008637134 0.0015691408 -0.0010863962 -0.00078517484 -0.0008871412 0.0002958802 -6.9853236e-06 -0.0005469475 -0.0011961223 -0.00044443947 0.0014058478 -0.00038552601 -0.0010471991 0.0009444577 0.0016580676 -0.0003476465 -0.0007876093 0.00016113407 -0.00057682063 0.001431718 -0.0010472257 -0.0009687111 -0.0009814411 -0.0014162598 0.0015746048 0.0005766776 -0.00049860403 -0.00058577256 -0.0010979935 0.0004571083 0.0006176018 -0.001574613 -0.0016437495 0.0005270169 -0.0010175359 0.0008686316 0.0007898099 -0.0015871053 -0.00051301986 0.0005951414 -0.0012266372 -1.8649482e-06 -0.0006759294 0.0014273342 0.0011182943 -6.155305e-05 0.00024729595 0.00010602168 0.00053570693 0.0009927764 -0.0005662973 0.0005889641 -0.000783683 0.00050473853 -0.0006894504 -0.00019478088 -0.0005795435 -0.00039353746 -0.0015647883 -0.0008249816 0.0009942111 0.0010619028 0.00033577133 -0.0011680814 -0.000365214 -0.0005432991 -0.0010417983 0.00012974183 -0.0010014785 0.0010459988 0.0007048632 -0.00067525846 0.0006120815 -0.0011557534 0.00065400725 -0.00068868016 -0.0013952319 -0.00015767355 0.0016217502 0.0008921868 -0.0012560352 9.838042e-05 0.0004788213 0.0012553082 -0.0003721295 -0.0002539546 -0.0014372946 0.0010959234 0.00045551197 0.0007400797 0.00040329606 0.00035125352 0.0007946726 -0.00016075953 0.00028925837 0.000919835 -0.0012524327 -0.0005610494 0.0014011854 8.7145934e-05 0.0006832342 0.00066933554 0.00062654243 -0.0013216274 -0.00010359365 -0.0003666717 0.0006881907 0.0016074899 -0.00018166841 0.00040219055 0.0010548685 -0.001036774 -0.00011020263 -0.00070121797 -0.00022276577 0.0009197877 0.00106882 0.0014685445 -0.00017842004 -0.00060296844 -0.0014477046 -0.00085291406 0.001309521 0.00037092922 -0.0011773293 -0.0014282755 -0.0015140127 0.0014709419 0.0015845925 -0.00064613734 0.0011379258 -0.0008876849 0.0014363057 -0.0002915873 -0.0006490458 0.001607284 0.0005303105 0.00039798373 -0.0016561587 0.0015901931 -0.0013838795 -0.0006294717 -0.0011248742 0.00060916465 -0.00094868825 0.0010131617 -0.00045417305 0.00033624572 0.0005086958 0.00021996287 0.0005094798 0.0007170358 -0.0015956415 0.0012446009 0.00060521794 0.001507813 0.0012239049 -0.0011147858 0.0015688727 -0.0015799499 -0.001298501 -0.00039011464 0.0013625547 -3.2918062e-05 0.0001883397 0.0015428887 -0.0008902407 0.0005734591 0.00066833285 0.0010360177 -0.0012286723 0.00020319167 0.00048745834 -0.0003365026 0.00057897146 -0.0012193228 -0.0007818556 0.0015230199 0.0013339419 0.00058402086 -0.0010311003 -0.0013713292 -0.0014621433 -6.1360064e-05 -3.093891e-05 0.0009124201 0.00026656952 -0.00039140502 0.00119756 -0.0013251929 -0.0015907157 -0.001289684 0.0006250307 -0.0015850986 -0.0011969606 0.0005066469 -0.00038769926 -0.001016457 0.0014026286 0.00061385095 -1.1794604e-05 0.00050955144 -0.0013602459 0.00023985356 -6.767207e-05 0.0015656666 0.00020817768 0.00020365785
padukone 0.00035876237 -0.00025441535 0.00076595054 -0.0014901818 -0.0007605158 -0.0012520519 0.0011009771 0.00024336437 0.00038623228 0.00080950814 0.0013659777 0.00052253425 0.0006738425 -6.784822e-05 -0.0016459839 -0.00066228205 0.0010366763 -0.0011441673 -0.00043009367 -0.00019647546 -0.0004845036 0.0011938608 0.0012006473 2.6378351e-05 -0.0011928594 0.00055695116 0.0014538566 0.00047196445 0.0014576962 9.971066e-05 0.00048344026 -0.00017207224 -0.0010011852 0.00023306461 -3.5837245e-05 0.00037469872 0.0007297131 -0.0007650512 0.0011912142 0.0015088378 -0.0012644198 -0.00020534416 0.0013831077 0.0015944004 -0.00075717375 0.0007288355 0.00025786972 0.0016162033 0.00010678261 -0.0010515213 -0.0004984684 0.0010594018 0.00062069896 0.0010046297 0.001135477 0.0007202021 -0.001044952 0.0014446308 0.0011636597 0.00061900594 -0.00048278985 0.0012676145 -0.00097273866 -0.00054348365 0.0011715787 3.2191387e-05 0.0014288672 0.00019780143 -1.5070803e-05 0.001004647 0.0016577325 -0.0015944648 0.00053401286 -0.00089612725 0.00028092146 -0.0008349095 -0.0005379709 -0.0016319386 0.0011939395 -0.00089897244 -0.0009046028 0.00092255935 0.00016147624 0.00096814294 -0.0009727332 0.0008841175 0.00036622013 -0.00053752837 0.0015946098 0.00013710889 -0.00014227325 -0.0013305534 0.0012334731 0.00011739623 0.00062872446 -0.00065097277 0.00085237855 0.00055076636 -0.00017806621 -0.0012656631 -0.0014186318 -0.0011443401 0.00085879536 0.00015700713 -0.00109884 -0.0004956829 -0.00057418493 0.001285257 0.0009773276 -0.0011117214 0.00043873713 -0.000868515 0.0015639303 -0.0005220306 -0.0016352845 -0.0002920245 0.0010807205 -0.0004884975 0.0012198208 -0.00088055787 0.00020557278 -0.00154534 0.0004418911 0.0010050718 -0.00016286423 -0.0013745694 0.0002870693 0.00033153532 0.0009286427 0.001221092 -0.0010487658 -0.0010635759 0.00046229622 -0.0006136222 0.0001583146 0.00096360414 0.0012048184 0.00089856586 0.00055625587 0.00096088526 -0.0004121716 0.000853998 0.00042415663 -0.0015191687 -0.00027469982 -0.0015537961 -0.0010569186 -0.0004749613 -0.0009556116 -0.00058820896 4.759345e-05 0.0008551746 0.00046217002 0.0013602643 0.0015434196 -0.0005845067 8.8252404e-05 0.0012113976 -0.0012372074 0.0015657907 0.00038026704 -0.000695643 -0.0005844807 0.000616838 -0.00030007807 -0.00027156592 -0.0011416904 -0.0011586339 0.0005803813 0.00034968412 0.0016490791 0.001520515 0.00084300584 9.026756e-05 0.0014854409 0.0012511155 0.0005983027 -0.0005035132 -0.0011364343 0.0003277859 -0.0007598974 0.0014793451 -0.001388007 0.0005370083 -0.0014415194 -0.00035568196 -0.001024488 -0.0012421759 0.00044062696 0.0009235155 0.0013006723 0.001594957 -0.0002457897 -0.0005437301 0.00092710205 0.0009890562 0.0016550317 0.0016585698 -0.0008827164 -0.0010105709 -0.0015433864 -0.00082070177 -0.0016349325 0.0012952394 -0.0013527825 -0.0012116098 8.682207e-05 0.0007948202 -0.0010927692 0.00023623681 -0.00023211047 -0.00085447804 -0.00039527938 -0.0009404461 -3.0225294e-05 0.0013726853 0.0016024661 -0.0014496854 -0.0011676368 0.00058256945 0.00084395567 -0.0010648974 0.0009849838 0.00083090697 0.00015086247 0.00031021817 -0.0011632214 -0.001502541 -0.0014026455 -0.0005243369 0.0015606646 0.0009552276 -0.0012718963 0.00042983523 -0.0012802553 0.0008833013 -0.0011169043 -0.00031153072 -0.0015271989 -0.0003116092 0.00063476694 -0.0001654521 -0.0014854238 0.0012204213 -0.0008572912 0.0010378915 -0.0008194293 0.0014812528 0.0011060947 -0.0011286008 0.00069422624 -0.0010487675 -0.0008200449 0.0008945943 0.00040132963 0.00018882583 0.00013634078 7.5633085e-05 -0.000573453 -0.0004956993 0.00014419232 0.00042633523 0.00038608574 -0.0006109263 0.00036846174 -0.0013705124 0.0008834576 0.0013782727 0.0010506731 0.0011142797 -0.0006753614 -0.0013231932 -0.0016689365 -0.0009889082 -0.00045788847 -0.001487512 0.00047679272 0.0015754234 0.00011387891 -0.0008964108 0.0003243699 -0.0005753651 -0.00045662248 0.00048624873 -8.315085e-05 0.0009222178 0.00015982169 0.001390678 -0.0004558714 0.0010077308 0.0015421123 -0.0007699538 0.0008099242 -0.00091662904 -0.001632721 -0.0015397936 -4.482188e-05 -0.0009111072 -0.00073230965 -0.001575569
singh -0.0013058275 0.0011192012 0.0015997497 0.00036031858 0.0014384994 0.0015954494 -0.0013799628 0.0013066215 -0.0016545337 0.00017862221 -0.0014445983 0.0003129418 0.00041260303 0.00026941308 -0.0014351596 0.00048217818 -0.00065936166 -0.00010871608 8.519789e-05 0.0014918015 4.9785027e-05 8.448459e-05 -0.00040563068 0.0011665286 0.0008403282 -0.0009312176 0.0006534997 0.0016289193 8.670136e-05 -0.0015871791 0.001629382 -0.0007893934 -0.0011842205 8.169296e-05 0.001027496 0.000853979 0.00029928715 -0.0011117823 0.0012982077 0.0007159474 0.00058158673 0.0010402825 0.0010702792 -0.0003099742 -0.00054393616 -0.0010786062 -0.00055855594 0.00093404274 -0.0012288201 0.0011939151 0.0009527686 -0.0005109288 -0.00065590336 0.00015410014 0.001597351 0.00051849557 -0.0015456475 -0.00026553855 0.0005522721 -0.0014510953 -0.0013918019 0.00074433174 0.00076793676 0.00071733637 -0.001107076 0.00041351593 0.0016736141 0.0011702287 -0.0001784476 -0.0005333286 0.000116754716 0.0011458028 0.00031369657 0.0014385241 -0.00011584985 -0.00031355704 -0.0014087447 -0.0015748275 -0.0014821723 0.001224823 0.00044961207 0.0010340016 -0.0013958962 0.0016587621 -0.00083813 0.0015698493 0.001050952 -0.00056030496 0.0013430938 -0.00111083 -0.00016683814 -0.0008791477 0.0011986378 0.00010031539 0.0012197887 -0.0006659216 0.0004681628 0.0011242867 0.00070075825 0.00039534608 0.0010755275 -0.0012214507 -0.00030518233 -0.00039474465 0.0005131002 9.827477e-06 0.0005266975 0.000777247 -0.0014821648 0.00044410274 0.0008921811 -0.0005347159 1.9419846e-05 0.0015122561 0.0013897364 -0.0014491242 0.00095637265 -0.00024406695 -0.00056501105 -0.00061685976 0.0011152737 9.449835e-06 0.0011247165 0.0004363069 -0.001165647 -0.0010747715 -0.00090784475 -0.0010761841 0.0005022729 0.001221943 0.001041152 -0.001454883 -0.000587594 -0.0009568269 0.00083161774 -0.0016535027 -0.0016682717 0.0015257987 -0.0009476794 0.0010299888 0.0009782069 -0.0006550053 0.00030314422 -0.001407705 -0.00093593425 0.0012861677 -0.00030400162 0.0008810616 0.00062444416 -0.0014674651 0.00089768507 -0.00115418 0.0010962664 -0.00050161354 -0.00045704507 -0.0016180702 2.0109657e-05 0.0006174562 0.0005069663 -0.0007266617 0.0009209817 -0.00043915276 2.6280271e-05 0.0016552996 -0.00090191886 0.00062234566 -0.0004034287 -0.0016006234 -0.00092097936 -0.0005053684 0.00039942865 0.00011204808 -0.0016637611 -0.0001863836 -0.0014747774 0.001507538 0.00020189182 -0.00016871878 -0.0007572163 0.00020541764 -0.0009813943 0.0006804751 0.001497707 -0.0010316392 -0.00033768895 -0.00044731694 -0.0009265744 0.0014721792 -6.4943066e-05 0.0010014389 0.00093574106 -0.0014388851 -0.0014518852 -0.0005833499 -0.0013941932 -0.0011620056 -0.0014960428 -8.558749e-05 3.9129616e-05 -0.0013006773 0.0001219538 0.00058734 -0.0004803215 0.0007813531 -0.0011521875 0.0009106283 1.8087052e-06 0.000107433 0.0008687629 0.0008063256 -0.0008915709 -0.00011915644 0.0008088347 0.0012543319 -0.0015333473 -0.0009825432 0.000577135 -0.0006168718 -0.0002809272 -0.00033396896 -0.0015054435 0.00033929336 -0.00038052257 -0.0015068738 -0.0012153761 0.0009977401 0.00024436048 -0.00091635593 0.000391286 -0.00013581356 0.000726361 -0.00020726415 -0.00037505024 -0.0006053773 0.0015335198 0.001363629 -6.638423e-05 0.00075106224 -0.00046589365 0.0008328359 -0.00063964596 4.3571425e-05 2.509019e-05 0.00082693796 0.0013273834 -0.0016089285 -0.00080911146 -0.0004441716 -0.0010694114 0.0011540523 0.000386279 2.4196133e-05 0.0005244047 0.0013069834 0.00012256006 -1.2164171e-05 0.00046940506 0.0013473834 0.0015889356 -9.5349045e-05 -0.0007005154 -0.0014151752 0.001256089 -0.00016459913 1.4567565e-05 -0.0006452176 -0.0013947464 0.0013470917 0.0004898491 0.0005888831 0.0011389271 -0.00068647024 -0.00048471845 -0.00074445456 0.0009903408 -0.0012913756 0.0015955217 -0.00065536774 0.0010947505 -0.0016470582 0.0005635059 5.7158024e-05 7.426321e-05 -0.0006321148 0.0014626434 -0.0013199754 -0.00017876782 -0.00030740627 -0.00084066065 -4.9656985e-05 0.0015581251 -0.0011543009 0.001567907 0.0015338706 0.0008049355 -0.0005796165 0.00060152006 0.0016589557 -0.00067722454 0.00073348853
also -0.0013236229 -0.0009681421 -0.0013534123 0.0010453464 0.0016314996 0.0010008778 0.0010150464 0.00016967132 0.0008888243 0.0013325542 -0.0013514617 0.0006038139 -0.0002725634 -0.0012471493 0.00067529996 -0.0013144098 -0.00025699506 0.0008241064 -0.0013781991 -1.0430616e-05 0.00032221703 -0.0013614647 -0.001172602 0.00095436914 -0.00023920192 -3.7214646e-05 -0.0014502767 0.00068717194 0.00017305468 0.00030889164 -0.0013034156 -0.0014262634 -8.138407e-05 0.000485115 0.0012795152 -0.0016540469 0.0011578883 -0.0005020591 -0.0015082918 -0.0016528491 0.0002890326 -0.00047646003 -0.00036896492 0.00040331882 -0.0011538197 0.00026693466 8.764238e-05 -0.0015533941 -0.0016265721 0.0008878753 -0.0011670194 0.0010451502 -0.00060099206 -0.001321543 0.0014678565 -0.0014480045 -0.0011151169 0.0010962317 0.001017648 -0.000289843 0.0007967398 0.0007573184 -0.0002630461 -0.00016412749 -0.0005549652 -0.0004930481 -0.0006731593 -0.0005425113 -0.0006510655 -0.0014433968 0.00096683955 -0.00027784568 0.00053202675 -0.00094555167 0.0010167299 0.0011403217 -0.0005893701 -0.00023480484 -0.0009006712 0.001010911 0.0008120231 0.00025748461 0.0015417915 0.00059352495 -0.0004951985 0.0016590694 0.00062620576 -0.0012221736 0.0008919806 -0.0011252336 -0.00058920035 -0.0004972785 -0.001197024 8.193317e-05 0.0012448255 -0.00033218396 -0.0015165138 -0.0012761095 -0.0012723808 -0.0013297476 0.0011312284 -0.0011954091 0.0009661031 0.001305129 0.0004110278 0.00088130834 -0.0005536413 0.0011719988 -0.00024107187 -0.0012855683 -0.0008636228 -0.0003090994 -0.00078852545 0.00040961293 -0.001560995 0.0011961731 -0.00031566148 0.0014735407 -0.0012897004 0.0009961468 -0.0013417813 -0.0012793856 0.0011922035 9.5137446e-05 -0.0014082565 0.001444774 -0.0014322622 -0.001155059 0.001614688 -0.0012568444 -0.00074922177 0.0012176988 0.0014732485 -0.00012405553 0.00047829666 -0.00034346667 -0.00054896774 0.0012654115 -0.0011626657 -0.001453412 0.0010242264 -0.000257965 -0.00080614584 0.0015865802 -0.00061026175 0.0013093848 -0.00011684879 0.0010327896 0.0002009669 -0.00093296106 0.0013741591 0.00083442073 0.0011533997 -0.00065854297 -0.00024333328 -0.0012185101 -0.00014671702 -0.00068444974 -0.001284685 0.0002875011 0.0012879913 -0.0013759608 0.0011952327 -0.0006875358 -0.0014602118 0.00026561544 0.00015686001 0.0012508881 -0.0013088301 0.00028831334 0.00043714687 0.0010559405 -0.0014540444 -6.7808694e-05 -0.0010291944 0.00020708136 -0.0011992112 -0.0012257885 0.000858002 -0.00031210645 -0.00018492377 0.0013878328 -0.00031030425 0.0012190293 0.00083301746 0.0015186275 0.0012407752 -0.00020553259 -0.00012261674 0.001473909 0.001166479 -0.0011196925 -0.0009990442 0.00022364507 -0.0014056808 -0.00026224944 0.0014623752 0.00079479563 0.00012717431 -0.0016024827 0.0015315808 -3.2930897e-05 0.0006188807 0.0008726563 0.00016705456 0.0015005623 0.001022946 0.0003299522 0.00068886514 0.0012415758 0.0007420784 0.0014069575 0.0005876464 -0.0014567389 0.0012690944 -0.0015664321 0.00092782185 -0.0014810733 -0.001478727 0.0005944711 0.0012646482 0.00069356733 0.00061554887 -0.0001000363 0.0007343616 0.00093804894 -0.00020230275 -0.0010152678 0.001344909 0.0012636335 0.0008734752 0.00017541254 -0.0006218041 0.0003148845 0.0013461406 -0.0014040394 0.00017973265 -0.0014184287 0.0010622577 0.000973921 -0.0007443832 -0.0012205784 0.00042338166 -0.0011530773 -0.00082543155 0.0005116884 0.0009103092 0.00092912896 -0.00059251674 -0.001144854 -0.00041188925 0.0004926245 -6.5791623e-06 0.0005111213 -0.0006475766 0.00010842327 0.0009649704 0.0009034521 0.00026213386 -0.0009230016 -0.000520256 0.00077645766 -0.0016413917 -0.00024509517 0.0010886379 -0.0002069232 -0.0008262041 0.0007876678 0.00165382 -0.0012123985 0.0010098598 0.0012930554 -0.00052103767 0.001505969 -0.0015566162 -0.0011679603 0.0013874505 -0.0005920135 -0.0013140073 0.0014652979 -0.0011963727 0.001243649 8.046107e-07 -0.0010713512 0.00065947423 0.00013356422 0.00048430814 0.0007697731 -0.0013728283 -0.0001384565 -0.0006417538 0.000983903 -0.0007099055 0.0015010667 8.115418e-05 -0.0009770897 -0.0003266649 -0.0011596229 0.0015894433 -0.0013909256
man -0.00022998927 0.00140844 0.0014853264 -0.0013859348 0.0015653053 0.001409179 -0.00052245933 0.0016487368 -0.00022559347 0.0014548938 -0.0002686434 0.0011028672 -0.0013455251 0.00021546074 -0.0012553815 -0.0010645714 -0.0002750522 -0.0015147527 0.0015862421 0.00032899663 0.00028879198 -0.0014831028 0.0015183588 -0.0012444138 0.00066791807 -0.0013635595 -3.3059125e-06 0.0005218553 0.0001367538 0.0014865221 -0.00016909232 0.0009201406 -0.00022394146 -0.00028256016 -0.001039799 1.85927e-05 -0.0006020372 -8.4326624e-05 -0.0009658538 0.0003901341 0.0006791098 -0.00057818886 0.00084479206 0.0007145484 -0.0013896669 3.0642266e-05 -0.00025732353 -0.0013861689 -0.0016235695 -1.9100744e-05 0.0012420932 -0.001304206 -0.0005711561 0.0003330591 -1.2643577e-05 -0.00084694347 -0.0001806118 -0.0016437587 -0.001331397 0.00071912864 0.0004899459 0.000964932 -0.0008900684 -0.0016036581 0.00020338218 -0.0013191424 0.00058486743 4.837137e-05 0.00043594852 -0.000976844 0.0006918161 -0.0010742019 -0.00037746638 -0.0015367232 0.0016502333 0.0014760455 0.0010241827 0.00056048506 -0.0013293942 0.00017222425 0.001658798 -0.0004973553 0.0002859068 0.0015539143 0.00044497257 -0.00026361956 -0.000614628 0.00016200375 -4.5995734e-05 0.00030743078 -0.0012407792 -0.0005021707 -0.00037065367 -0.00053897145 -0.0013315695 0.00027420773 0.0013311867 -0.00047444107 -0.001057214 -0.00082817784 -0.00097264285 0.00087199616 -0.001221057 0.00088383275 -0.0006812204 0.0006591669 -0.0004388613 0.0006448819 -0.0015857288 -0.0012020343 0.0011377856 5.6108143e-05 0.00021599124 -0.0012522837 -0.0015043361 -0.0009848216 3.6500653e-05 5.780624e-05 -0.00029835047 -0.001452307 -0.001202507 0.0007518669 -0.0006426141 -0.00083099125 0.0015982378 0.0010225998 0.0015137903 -0.0005253941 -0.00092620845 -0.0008074538 -0.0011034507 0.00035478667 0.0011747668 0.00061466225 -0.0009939797 -0.0016477199 -0.0010601184 0.0014311775 -0.001077414 0.00041707658 0.0011526648 -0.0010177211 0.00061200664 -0.00022362522 0.000990447 0.0011524062 0.0015432737 0.00094847166 -0.0005575214 0.0003196706 0.0005212822 -0.00073193415 0.0010647568 -0.00062155206 -0.0014449565 -0.001598862 0.0016387467 -0.00014124639 -0.0010146683 -0.0015944365 0.00028557723 -0.00087026187 0.001468207 -0.0014238675 -0.001005019 0.00062883034 0.0012188907 0.0015192516 0.0012909186 -0.0014704096 -0.0012524582 -0.0012912056 -0.001481387 -0.0005134571 0.0015853524 -0.00013656962 -0.0011963801 -0.0005915672 -0.00014126705 -0.0006223581 -0.00090879604 -0.00014249599 -0.00038720385 0.000947705 0.0015993795 -0.0012068794 -0.0010170059 0.00027230423 -0.0015324601 0.0016510236 -0.0016634266 -0.0007850061 0.0013009411 -0.0012886628 0.0010837584 -0.001109449 0.0006316555 -0.0010570361 -0.00108713 0.00080744416 0.0013066785 0.00088843366 -0.00045243325 -0.0008237179 -0.00045516924 0.00032394545 -0.00067860197 -0.0011186544 0.0010545518 0.00068944384 -0.0014644467 -0.00014358087 -0.001144118 -0.0011600145 -0.0010177144 0.0010820109 -0.0013677002 -0.001599304 0.0001175807 -0.0008119582 0.0012504921 -0.0016422765 0.00089395087 0.00056834694 0.0009482895 5.4371878e-05 -0.0010115334 -0.0009431151 0.00021888895 0.0010185185 0.0014901829 0.0011226756 0.0016125418 0.00012816224 0.001076874 0.0013317466 0.00016228488 -0.00027597425 -0.0008273515 -0.0005219702 0.00065475184 0.0015634171 0.001530472 0.0014925384 -0.0005115161 0.0009076803 0.00025517773 -0.00020305274 -0.0011885872 0.00061927526 -0.0006252493 -0.00081425154 -0.0001381989 -0.0011310093 -0.0010792414 -1.695855e-05 -0.0007122773 0.0001050428 0.0015478659 -0.001158496 0.0010865986 -0.001530864 0.0012158984 -0.0005603232 0.0012038703 -0.00064336415 0.0013442338 -0.0001079445 -0.00045528132 -0.001166399 0.0012279663 0.0007993168 0.00063597405 0.001417818 -0.0006172295 -0.00042169922 -0.0012078332 0.00074533373 9.943826e-05 0.00033720917 0.00088801567 0.0010622375 0.0007419215 -0.0008995473 -0.00015822309 0.0014340127 -0.0006356789 0.0013598467 -0.00028870473 -0.0016528127 0.0005743092 0.00010280845 -0.0010211291 -0.001429223 -0.00041399233 -0.0016305066 0.00021466018 0.0016166064 -0.0010763127 0.0010444978
isha 0.001042861 0.0006300672 -0.00038794204 0.0005056682 0.00036973687 -0.00077836984 -0.0011668067 -0.0015151527 -0.00080834073 -0.00043180902 -0.00011161826 0.000899188 0.0009879384 0.0011015098 0.00045886493 0.0015116637 -0.00078822474 -0.0013971758 -0.0012816429 0.0003507847 0.0003983464 0.0011196854 0.0013317786 -0.0012515853 -0.00092108303 0.0006422502 0.0016505638 0.0006706882 0.00044835382 0.00081611896 -0.0013643227 -0.0013558668 -0.0012708999 -0.00078494457 0.0007021985 -0.0015126782 0.0013112552 -0.0015082076 0.0011585725 0.0007929517 -0.0014310066 -0.0006708198 -0.001621232 0.0014341165 0.001314184 0.0013030459 -0.0006046432 0.001627315 0.001600951 -0.0009811614 0.0004444371 -0.0010004657 0.000637966 -0.00042823778 0.00083675876 -0.00060154137 -0.0005064275 0.0015590347 0.00030047193 -0.0009064299 0.00078641996 -0.0015058193 -0.0011103646 0.00013652672 -0.0010069286 -0.00024044038 -0.00047091945 -0.00081054296 0.00035752516 0.0016121086 0.0007644156 -0.0006106471 0.0006882367 0.000688814 -0.0006536514 0.0004188123 -0.0013512643 0.0016335836 0.0011548189 -6.4494016e-05 -0.0013528466 -0.00035908975 0.0012284574 -0.0004335148 -0.0015949556 0.0013521508 0.00036350806 -0.0004661278 9.374237e-05 -0.0010685072 -0.0007023369 0.0003909069 0.00089908065 0.0012337589 0.0013256946 -0.00013423512 -0.00034032538 0.00062195864 -0.0016509743 -0.0012133709 -0.0012601183 -0.0012403569 0.0015760459 -0.0015411157 -0.00091103645 0.0006834664 0.00022837351 0.0013160713 -0.00059470936 -0.00059109903 0.00047990095 0.0006496881 0.0009373693 -0.0012793196 0.0003340525 -0.000750952 -0.001359153 -0.0011679846 -0.0005368228 0.001041304 0.0012672049 -0.0005516333 0.0007765848 0.0006888154 0.0007911674 0.0014428487 -0.0011005974 -0.001008559 -0.0012694924 7.8959245e-05 0.0009189365 0.0011513785 -0.0005947684 -0.00043614462 0.0007032389 -0.0011074982 -0.0011547309 0.00057109166 0.00058775756 -0.000547507 1.41162955e-05 -0.0015660961 0.0004969148 0.00021610853 0.0005739438 0.0009983757 0.0009840868 0.0007886998 -0.0012451954 -0.0014579189 -0.0003064765 -0.00046612695 -0.0009242711 0.001196173 4.4435474e-05 0.0005542283 -0.00045185842 -0.0010549653 0.0011041539 -0.0002590006 3.3901357e-05 0.00040655432 -0.00058899255 -0.0010814852 -0.0014984857 -0.0009926026 0.0016534451 0.0009884832 -0.0009831092 0.00063217734 0.0008033143 0.0014804645 -0.001112344 -0.001505513 -0.00018095363 -0.00014364866 -0.0010066438 -0.00063951977 -0.00071800617 -0.0012842626 0.0013908187 -0.0012610237 0.00012898067 0.00094132946 0.00069343275 0.00046560424 -0.0009578175 -0.00016298216 0.00043030427 -0.00077463704 -0.00026174713 -0.00034274688 -0.000534551 0.0009768108 6.52342e-05 -0.00050522725 0.00043336165 0.00061491673 0.00119176 0.00041371278 0.001318403 -0.000991362 0.00114204 0.0009123155 -0.0014081503 6.452296e-05 0.00048294294 0.00070835784 0.00051697117 0.0010290131 0.00020818484 -0.0015700833 0.00074644265 -0.0007021471 -0.00028320015 -0.00012519208 -0.0015016384 -0.0011483834 0.0005591513 0.0014787535 0.00032571127 -0.0012475997 -0.0015718126 0.00016580416 -0.00013414402 0.00034006705 -0.00026940287 0.0015480871 0.001170072 0.00058720825 -0.0014789113 -0.0014346256 -0.0011244933 0.00087917194 0.0009002362 0.00089302316 -0.0009841414 -0.0011569122 -0.0006263398 -0.00096258824 -0.0014852863 0.0015819997 -8.8829465e-06 -0.00020539446 -0.0014747315 -0.0006503574 -0.0016000409 0.0002027376 0.00025842284 0.000973964 0.0003946558 0.0011430278 -0.0003176907 0.0003646374 0.0010287461 -0.0014292866 -0.0012401331 0.00080672774 0.00072552596 0.0005899613 -9.158377e-06 -0.00041297497 -5.201047e-05 0.0015904272 -0.0013135094 0.00018861592 0.0010398015 -0.0010630898 -0.00054007897 0.00029927332 0.00030240542 0.0005035796 0.0009014432 0.0006455196 -0.00017781218 -0.0011263839 -0.00077466195 -0.0013191781 0.00086891395 -0.0007727853 0.001280204 0.0004011142 0.0005876398 0.0011947376 -0.00086947693 -0.0016447994 -0.0007963865 -8.2176894e-07 0.00055361906 0.0010628571 0.0008181092 0.001092043 0.0005226121 -0.00018046932 -0.0013536096 -0.0014923306 -0.00031890633 0.0005046862 8.5920416e-05 2.5895115e-05
ambani 0.0013682466 0.0003415443 -0.00012999213 -0.0004621576 -0.0006096462 0.0013171665 -0.00039303696 0.0010297326 0.0016367157 -0.001081163 -0.0004855164 -0.00080441625 0.0007799912 0.00023957876 -0.0010497659 -0.0013687859 -9.922399e-06 0.001162406 -0.0013963062 -0.001288528 0.0011825525 -0.00061537325 0.00023221105 -0.0010269587 0.001144564 -0.00038430767 0.00034479995 0.0016466661 -0.00059237325 0.0011115082 0.000895022 -0.0010304981 -0.00072519464 -0.001081825 -0.0014410025 0.0002715971 -0.0014860777 0.0005659111 0.0013616601 0.0009150621 0.000101770456 -0.0006099367 0.00078757317 0.0011131294 -0.0012502717 -0.00076411176 0.00039429506 0.0010518758 -0.00082915614 -0.0009792256 0.001058289 -0.0005684305 0.0015437687 0.0016476191 -0.001210751 0.0006246474 -0.0009096025 -0.000826001 0.0003332056 -0.0013193367 0.0014923051 -0.0014269872 0.0007984464 -0.0010965461 -0.0012812726 0.0006243544 -0.001147248 -0.0015404628 0.00035101819 0.0012918386 0.00089132885 -0.0006893564 0.0012078021 0.0015209594 -0.001605278 0.0011487458 -0.0014990302 1.8775921e-05 0.00018520239 -0.0010947294 -0.0014006256 0.00013478352 -0.00076491944 -5.483192e-05 0.0010570828 0.0010019651 0.0013246686 0.0015919792 -0.0011846779 -0.001486804 -0.00093683787 -0.0011419018 -0.000998877 0.00033151833 -0.0014937081 0.0014818679 0.0009386672 -0.00056803337 0.0004982574 -0.000952987 -0.0012749989 -0.0014417161 0.00086989417 -0.0006119983 -0.00066557736 0.0012878077 0.0014177834 0.0014454147 -0.001238249 0.00027612082 -0.0016127768 0.0010448258 -0.0010952508 -0.0014428304 -2.244292e-05 -0.0013677614 0.0008893347 0.00021836463 -0.0012148455 -0.0013170223 -0.0016635245 0.000750317 -0.0007305455 0.00013522226 -0.0006192195 0.0007991724 0.0014241172 -0.0015551237 0.0012765016 0.0012391334 -0.0007737054 -0.0006320397 0.00074770924 0.0002147384 -0.00087054184 0.001631239 -0.00054884853 -0.0005647219 -0.0009621316 1.6158823e-05 0.00036666862 0.0015031403 0.0015826785 -0.00019168321 0.0014756188 0.0007357486 -0.0013896297 0.0008376863 0.00063035125 0.0006287072 0.00056271 0.00096274784 0.0010037387 -0.00044247144 0.00096216553 -0.0005793032 0.00089613855 -0.0009221713 -0.0007860312 0.00016672061 0.00040518364 -0.00039319685 4.41893e-05 -0.0011091139 -0.0006407226 -0.00036193384 -0.0008482459 0.00026212374 -0.00020359157 -0.0009648249 0.001656034 0.0013452575 -0.00039094186 0.0003305036 -0.0011335594 -0.00055268063 -0.00063498266 -0.000787676 -9.463605e-06 0.00051644107 0.0010721751 0.00043260286 0.0005769856 0.0015504622 0.001344327 -5.1051046e-07 -0.0013167253 -0.0013709543 -0.00135537 0.0006645559 -0.0002752408 0.00076776557 0.0012291282 0.0014422432 -0.0004896131 -0.0013393945 -0.00079633156 -0.00052451034 0.0016567877 0.001493987 -0.0015653038 0.00031100275 0.0011919299 -0.00083637686 -0.00053775386 0.0006090661 0.0011726525 0.001223503 -0.0015394381 -0.0009960154 0.00016259159 -0.0006454119 -0.0006871067 -0.0014075994 0.0005558634 -0.00084241404 0.0009576696 0.0016172185 2.2279659e-05 0.0010512257 0.0010538184 -0.0016183644 0.00031820495 -0.0013844005 -0.000109159366 0.0010041657 0.0009979558 0.00095277134 0.00017005671 0.0005649304 0.0013856756 -0.0011643781 -0.0007569828 -4.627257e-05 0.00055629393 -0.0008031339 0.0016258454 -0.0013523899 0.00057177333 -0.0008570673 -0.0014069435 0.00136557 0.0006095773 0.00051027205 -0.00031426418 -0.0005548173 0.001136268 -0.00057450525 -0.00050768885 0.001061921 0.00072152034 -0.0009487159 -0.0009301185 8.910283e-05 -0.00069189 -0.00020927959 -0.00085623504 0.0005266013 4.3394284e-05 0.00023370676 -0.0013123623 -0.00010960231 -0.0007407143 -0.00026512603 0.00036087658 -0.0005157144 0.0014975253 -0.0013981116 -0.00033540075 -0.0010758935 0.0015653007 0.0012676807 -0.0002174328 -0.0011889461 -0.0013918048 0.00045180737 0.0003915673 0.0013461928 0.0016640055 -0.00072119955 -0.0011160906 0.00073065644 -0.00039883502 -0.00025446125 -0.000152776 0.00033346348 0.00068712514 -0.0016022883 9.366611e-05 -0.00047610048 -0.00035718383 -0.0009899494 -0.00158545 0.00024314706 0.0003742834 0.0012539465 0.00053198845 -0.00045321436 -1.6252883e-05 0.0003473974
anand -0.00039425897 0.0001676559 -0.00049782044 -0.00097516144 0.0010264317 0.00014623483 -0.0007886923 0.00032947367 0.00080068165 -0.00019423272 -0.0013793492 -4.36722e-05 0.00074470806 -0.00039368303 -0.000627324 -0.0013609447 -0.0014195525 0.0002541139 0.0011184638 -0.00073783484 -0.00062010874 -3.0105559e-05 -0.00030779888 0.000530125 0.0006203107 -0.0008847962 0.0013133705 -0.00025880875 -0.0012278854 -0.00013609606 -0.0007355751 -0.00056660763 -0.0012867546 -0.0008571249 -0.0014391383 0.00022359872 -0.0015625227 -0.00027475154 0.001370709 -0.00092405215 -0.0006544416 0.0014564055 0.00050688523 0.00066016393 0.0016432926 0.001623581 -0.0011349512 -0.0004614946 -0.0013725983 0.00033299593 4.4510423e-05 0.0014493847 -0.0009067098 -0.0008438089 0.001291426 -0.0010902424 0.0001642895 -0.0012583374 -0.00075404934 -0.0007246498 -0.0016272413 0.00011899239 0.0007033852 0.001619777 0.0010187575 -0.0015771585 -0.0014801616 0.000627874 0.000428117 0.00031524376 0.0004749525 0.0012306834 8.581273e-05 -0.0010053648 6.9311405e-05 -0.0008819174 -3.1744526e-06 0.00076215813 -0.001144855 0.0016502506 -0.00023940911 -0.00079689163 -0.0010866779 0.0011650149 -0.0005672367 -0.00016964274 0.0015412353 0.00086108013 -0.00055367796 -0.0010410864 0.0010940029 -0.00054015557 0.00029321614 -0.00090238784 0.0013047484 0.00092497095 -1.2402226e-05 -0.0015135325 -0.0014205233 0.001632119 -0.00093347876 0.0007355244 0.0011129951 -0.00029312153 -7.379818e-05 -0.00069103565 -3.7551352e-05 -0.0016246848 0.0003348761 -0.0014703106 0.000962975 0.00094179367 -0.00093692844 8.9259e-06 -3.5229991e-06 0.0013090571 -4.267124e-05 -0.0007254836 -0.0012313497 0.0015055737 0.00069242 -0.0013765702 -0.00040750855 -0.00026881066 -5.3396736e-05 0.0010882847 -0.000648129 -0.0013628134 0.0012332592 5.1495936e-05 -0.0010545207 0.0009924003 -0.0003593376 -0.0009984663 0.00029689784 -0.0009733383 0.00084848143 0.001023941 -0.0007757036 -0.0006468964 -0.0007031265 0.0012016435 0.00026494588 0.0010658451 0.00091189164 -0.0004946327 -0.0007180917 0.00010568707 -0.0015853487 -0.0011222807 -0.00020546555 0.0012795936 -0.0012312494 -0.001019831 0.00018180688 0.00093703077 0.001290847 0.00097406475 -0.0011009235 0.0012344484 -0.0012613276 -0.0015194955 4.536909e-05 -0.0009579682 0.001303365 3.858579e-05 0.0013974665 0.0012895912 -0.0007371439 0.00072612875 -0.0012530668 0.0006887706 0.00081015966 6.867033e-05 -0.0009445113 2.8510558e-05 0.00088940037 -0.0013713656 -0.0013371069 0.0014176446 0.0016323978 -0.0012814912 0.001037696 -0.0003632851 0.0010460109 -0.00042340488 -0.0012104936 -0.000827859 0.0007090821 -0.0008008906 -0.00095649314 -4.9531034e-05 -0.00040261392 0.0003520802 -0.0005748742 -0.0006615352 0.0013880738 -0.000103938 0.0004900474 0.00043796707 -0.0010245771 0.00026081342 -7.189917e-05 -7.066668e-05 -0.0014863655 -0.0009331825 -0.00010770974 0.0016093326 0.00075887196 -0.00062584045 -0.00039709875 2.3916393e-05 0.0009228579 -0.0015390054 -0.0010941699 -0.0011974942 -0.0014027262 0.0002451441 0.000978998 0.0016252187 0.00062836334 0.0011543127 -0.0014539522 -0.0015207614 0.0011147874 -0.00060346274 -0.0005861335 0.00045481327 -1.2578019e-05 0.0010066807 -0.0012031347 -0.00012833656 0.001097383 -0.00049118843 -0.0011407868 -0.0013550614 -0.00052860036 -0.0015670008 0.0009487654 -0.00070906506 0.0009424509 -0.00035378622 -0.0004388256 -0.0009953271 -0.0009028289 0.0006354739 -0.0008677998 0.00079072115 -0.0003627597 -4.688548e-05 0.0003148197 0.0012125679 -0.00088953023 0.00021609668 0.0007239889 -0.0012174579 0.0008856216 -0.0005971967 -0.0010556809 0.0004252141 -0.00017595835 -0.0007669803 -0.0013155341 0.0009728685 -0.001123542 0.00019677341 0.0013329425 0.001469805 0.0012197772 -0.001447071 -0.0015012443 -0.0012589332 -0.0012181874 0.0011820616 0.00019904104 -0.0010338004 -0.0014050403 -0.0007912943 -0.0006641182 0.00081629615 0.0014653025 -0.00030887278 0.0013086207 4.8409096e-05 0.00093947613 0.0010892864 -0.0004931139 -0.00032741093 -0.0010376285 -0.0013270504 0.0013164601 0.0005265499 -0.00076320587 -0.0015492929 0.0013382359 0.00042494858 0.00066942116 0.0011536996 -0.00069694244 -0.0009236745
piramal -0.0014674139 0.00019132748 0.0007217528 0.00091483176 0.0007439202 -0.00025113884 -0.0010701489 0.00095734495 0.000823078 5.4651984e-05 -0.0006045011 -0.0005835895 -0.0012251593 -0.0006446636 -0.0009970011 0.0011117043 -0.00024767473 -0.0009504835 -0.0011468426 -0.0003083121 0.00016451954 0.0006703356 0.00075395114 -0.00097252283 -0.00059201766 -0.00058063975 -0.0015893548 0.0014827682 0.0006882039 0.00013858445 0.0008266842 9.1468086e-05 0.00049885275 -0.0007233135 0.0013485574 0.0003201239 -0.0007090574 -0.00045835503 0.0015748414 -0.00090342516 -0.0012160975 -0.0012481763 0.0012863158 0.00086923986 -0.00073819706 -0.0001805323 -0.0013926857 0.0013386299 -0.0013754637 -0.0005281798 -0.0005860677 0.00033725143 -0.00073904137 -0.00034719755 0.0010751256 -0.0005528583 -0.0012408213 0.0008945125 -0.00083005615 0.0016667787 -0.0006457801 -0.00026286303 0.0014194214 -0.0009064234 -0.0008108716 0.0013353233 0.0005474502 -0.0013772275 -0.00037902052 -0.00062775944 0.0013893954 0.0014844713 -0.0011233218 -0.0009916225 -9.5044845e-05 0.0005598802 -3.289784e-05 -0.0014712217 -0.00030319407 -0.0013778141 0.0016375042 0.00054719584 -0.0009843684 0.00013244062 -0.0006630584 0.00042165627 0.0011528187 -0.00090853224 0.0009875963 -0.00091594184 -0.0015544259 0.00079774397 0.00069873565 0.0007156854 -0.001079403 -5.044824e-05 0.0003084237 0.000104261795 -0.0016567454 -0.0012357704 0.0006140313 -0.0014870027 0.0011284151 -0.00027437866 0.0010454793 -0.00069235195 0.0010109713 7.082505e-05 0.0015357166 -0.0012739301 0.0011371068 -6.7686196e-06 -0.0007934952 -0.0011637576 -0.000100091056 0.0013009452 -0.0008572064 0.0015893889 0.0010155578 0.0016140196 0.0009446325 0.0001311313 0.0014159897 -0.0002052488 0.00014577077 -0.0003459998 -0.0012823939 0.00041229316 -0.0013260838 -0.0013405303 -0.0008553231 0.0007400609 -0.001036742 0.00067310757 -0.001351496 0.0007674908 -0.00096160563 -0.0007372591 -0.0006012501 -0.00077746966 0.0011120684 0.0013494432 0.00022852753 -0.000620802 0.0013270577 -0.00078198395 0.0006660115 0.00069414044 0.0014276665 0.0002072466 -0.0007209483 -0.0010868338 0.0005688699 0.0011294715 0.00059866457 -0.00071780814 0.0010391258 0.0005852745 -0.00045809976 0.0012422273 -0.0003373711 -4.4370674e-05 -0.0011351433 0.0012025648 0.0006164683 0.0003524474 -0.00061370636 -0.0008045776 -0.0008078048 -0.000770789 -7.311315e-05 -0.0014069511 -0.00024748527 0.0012635989 8.627222e-05 -0.0008109947 0.00028565072 0.0012161655 -0.000234689 -0.0013692217 -4.865558e-05 0.0010254685 0.00074305385 0.0005457101 0.0008794473 0.0004650062 -0.0012225845 -0.0008459747 -0.00021791857 0.00020224505 -0.0010284305 -9.661855e-06 0.00090790907 -0.00056996144 0.0004355431 -0.0009661087 0.00086879486 -0.0004289707 -5.354793e-05 -0.00069425534 0.0013517315 -0.0015037348 0.0009966753 -0.0009503798 0.00023012783 -0.0011606386 0.0010705568 0.00017082393 -9.083208e-05 0.001171746 0.0016112722 -0.0009147851 -0.0013629731 -0.0008303159 4.3081836e-05 -0.0013378573 -0.0012118334 0.00026059337 0.0005357816 0.00055673195 -0.00015262008 -0.0009909684 -4.6346895e-06 0.0011544941 -0.0006656388 -0.0005305587 0.000289926 -0.0008418287 -0.0013274187 0.0011233747 -0.0006518328 0.00035233033 0.00067527045 -0.0011008228 0.00010432809 -0.0012188135 -0.0013417567 -0.0011649459 -0.001439595 0.0004709669 -0.0009931782 -0.0010055307 -0.0014520253 0.00044596623 -0.0007244099 0.00013921813 0.0006065682 -0.000530518 0.0014653105 0.000969469 -0.0007911343 0.00092949683 0.0016592713 -0.00090946903 4.8014834e-05 -0.0012269416 -0.00046663862 0.0014051062 -5.71346e-05 -0.0010203171 -0.0014243918 -0.0016236543 0.0011535784 0.0016109834 -0.0009779457 0.0015466226 0.00042944937 0.00016201558 0.0016541043 0.00036539158 0.00031398353 0.0013532141 -0.0013589241 0.00049998256 -1.8746903e-06 -0.00036604286 -0.0013186012 5.848329e-07 0.0007566381 -0.0010649835 8.7294895e-05 0.0010722069 0.0015508996 0.0015705811 0.0008155319 0.0006390144 0.0003069088 -0.0007605088 0.0014280814 -0.0012939253 0.0010381333 0.0016278281 0.0011282878 0.0012484267 0.00053372467 -0.00010064162 -0.0014754086 -0.00015885488 0.0011092159 6.579079e-05
saw -0.0005972691 0.0015069963 0.0011852877 0.0014320285 0.0010758324 -0.0014630033 0.0006794792 -0.0015764022 -0.0005422101 0.00136703 -0.0011378922 -0.0011534862 -0.0007864567 0.00056935183 0.0011552282 -0.0014607222 -0.0010918246 -2.5297728e-05 0.0011586208 0.00011241576 0.00061085453 0.0010229577 -0.001264545 7.464152e-06 0.0012140016 0.00013652204 0.0011983002 -0.00026645602 0.0007767975 0.0015638815 0.0014436312 -0.0013558767 -0.0013283418 0.0006911353 4.138338e-05 -0.0008674989 1.7297041e-05 -0.00102246 0.0014156373 -0.00048035377 -0.0002930123 0.0005084516 -0.00018646964 -0.0009455862 -0.0008957704 -0.0010279517 -0.00088332273 -0.0004158592 0.0011622244 0.0011116989 -0.000517591 -0.00030353412 -0.0013619037 -0.00050544593 -0.00033684846 0.00046225186 0.0011527474 -0.0013403546 -0.0011455428 -0.0006859322 -0.0016526416 0.0006893687 -0.0012866284 0.0014420314 0.0007484973 6.215521e-06 -0.00027212308 0.0012984587 0.0014128116 0.0014276208 0.00055120373 -0.0007288297 -0.000955638 -0.001035669 -0.0001786078 0.0009942616 0.000110610184 -0.0010878049 -0.0008592512 0.0005441994 0.0005353019 3.204552e-05 -0.00015960989 0.0015654237 -9.258844e-05 -0.0011378343 -0.00029815166 0.00015185976 7.5588745e-05 5.0809645e-05 0.00042070108 -0.00088899635 0.0012439995 -0.0008282564 -0.0006811958 0.0009792733 0.0013343253 0.00033302073 -0.0013618319 0.0013667521 0.0012148331 0.0012153506 0.0013888435 0.00090641755 -0.00026240945 0.0008745609 -3.1906253e-05 0.000696699 0.0011348964 -0.0011072931 0.0008937263 -0.000719148 0.0014542993 -0.00016401059 -0.0002170604 0.00044247264 -0.0006439968 0.0005504364 0.0016621811 0.00023126279 0.0005300214 -0.0013378558 -0.00052295165 0.00023985092 -0.0009904291 0.0005772794 0.0012877423 -0.0007033188 -0.0006073622 0.0003546697 0.00091113534 0.0007180119 0.0013063672 -0.0007684884 -0.0015049088 0.00028780714 6.642598e-05 -0.0011954233 0.00058984326 0.00029771973 0.0013956388 0.0012085772 0.0008967786 0.00020822167 0.00083952915 0.0015360498 0.0008467057 -0.0016156918 -0.0007955122 0.00071922276 -0.0011995476 8.71745e-06 -0.00011180857 0.0009555998 -0.0003738437 -0.0015329383 0.0010806985 0.00019898728 0.0015679811 0.0006912518 -0.0005483079 -0.0012406551 -0.00073779677 0.0002111644 0.0015283055 0.0014206019 -0.0012821214 0.00038982285 -9.2259754e-05 0.0005719517 -0.00088316185 0.0007773629 0.0016294807 0.0015624487 -0.00028568052 0.00123897 -0.0001179551 -0.00017641312 -3.2902273e-05 -0.00080734317 0.0007062708 -0.0015178244 0.0011157317 -0.00048653962 0.00044094908 0.0013350876 4.1216736e-05 -1.6235972e-05 -0.0009945775 -0.0015171804 -0.00090570655 0.0004646247 -0.0013572148 -0.0003991129 0.00079287105 -0.0010752757 0.00049530616 -0.00023535987 -6.9131296e-05 0.0005174142 -0.00052350765 0.0015462256 0.0013118534 -0.00079671247 -0.00031376723 0.000937921 -0.0009487195 -0.00017553364 -0.0010565289 0.0007242824 0.00044562327 -0.0009186254 -0.0012270998 0.00029748242 0.0011965979 -0.0011605087 0.00070853246 0.0002748527 0.000110428315 -0.0011487891 -0.00048049583 -0.0011741127 0.00038729262 0.00044661923 -0.000623589 0.00041720274 0.0010802029 -0.0012484491 -0.0016176236 0.0014479542 0.0016265217 -0.0015325884 -0.0005777541 -0.00053750497 -0.00013305133 0.0008645746 -0.0015481549 -0.00074561464 0.0002643322 -0.0016302308 0.0010979589 0.0016392876 0.0013470515 -0.001591357 0.0012781436 0.00026601827 -0.00087164086 0.00036033583 -0.00016711325 -0.0015116256 -0.0015182727 -0.0009964174 0.0009785377 0.00074252416 0.0007354713 -0.0013679784 0.00039910042 -0.0008231969 0.0013553125 0.0011894077 -0.0009240398 -0.00086164713 -0.00043708322 0.00010586656 0.0012877159 -0.0007656618 0.0008863821 -0.00070066453 -0.00073557475 0.0009772272 -0.0011065681 -0.00160031 -0.001358335 0.0013128143 0.0011233549 0.00017498244 -0.00090718817 -0.0016171403 0.0008280938 -0.0011008736 0.00021367289 -0.00088469894 -0.0010939749 0.0001916793 -0.0013356662 -0.0013894679 -0.0011959375 -0.0015338666 0.0012080193 0.00045238656 0.0010807926 -0.00068687403 -0.00045568807 -8.012143e-05 0.0009860973 0.0003596898 0.000110868976 -4.0379757e-05 -3.4673383e-05 0.0001806278
new -0.0004752801 0.0010090118 -0.00097356853 0.0014289328 -0.00046830496 0.0007829856 0.00021534196 0.00039961882 0.0014256248 -0.0012310606 -6.613354e-05 0.0014823623 -0.00019920325 -0.00085410185 0.0003329565 -0.0006050177 -3.0727504e-05 0.0008702025 -0.00082311756 0.001454247 0.00053151214 -0.0006133768 -0.00020374681 -0.0012286998 0.0011132503 0.00014076468 0.0016622383 -0.00060964545 -0.0011669728 -0.0014843734 0.00012676482 0.00064181036 0.00018036817 0.0011528775 -0.00029818452 -0.0012994 0.0012187033 -0.000623123 -0.00035945702 0.00032209823 -0.00068079476 0.0009089552 -0.0008546951 0.00067888584 0.00013566084 0.0014010884 -0.0014862281 -0.001546236 -0.0011526373 -0.0004216813 0.0005360976 0.0007683297 -0.00028101823 0.0006123691 -0.0014282162 0.001572054 0.00024569326 -0.0011471356 -0.0009154978 0.00094275706 0.00037308957 0.00057597645 0.0005434059 0.00099001 0.00082796556 -1.6896314e-05 -0.00031925755 0.00047936707 -0.00095032505 -4.3329685e-05 -0.00056963647 -8.0371334e-05 -0.00145885 -0.0002733503 -0.0011393067 0.0016214602 0.0007828426 0.0011269521 0.00067752507 0.0013203074 -0.001640799 -0.0016262914 0.001021699 0.00076214864 0.00064941787 0.0006701027 0.00046682078 0.00086629664 -2.566059e-05 -0.0015625854 -0.0012744839 0.00041557485 0.00039058353 0.00021691491 0.00027600524 -0.0015087838 0.0002972724 -0.0005849349 -0.0015838023 0.0007679198 -0.00058792374 0.00041344223 0.0012646656 -0.0009319028 0.0014614057 -0.0009852393 -0.0008564518 -0.0004375626 0.00031461893 -0.00057191384 0.000401932 -0.0002666104 0.00012652241 0.0006856389 5.600263e-05 0.00077507854 -0.0011607971 -0.0008187924 0.0009019253 -0.00096890726 -0.00096977316 -0.0011909747 0.0003060002 -0.0014110047 0.00045329554 -0.0009286188 0.00090035686 0.0006898374 -0.0015420588 0.000396369 0.0006770713 0.0013039197 0.0006773043 0.00045395977 0.0012746962 0.00074978574 0.000918491 0.0016191487 -0.00014634078 0.0014169237 -0.0005697043 0.0004896633 -0.0009707693 0.00017622673 -0.00081271096 0.00045916418 0.00012398204 0.0015536301 -0.00051947933 0.0010159028 0.0013303754 -0.00029622638 0.00043651508 3.5235345e-05 0.00022675365 -0.00056315237 -0.0005096489 -0.0002798888 0.0013670026 0.00086599286 -0.0016247762 0.0002144565 -0.0008989261 -0.0009887422 -0.00034435702 0.0013586198 -0.00091637 -0.0002755841 0.0010952514 -0.0010041044 0.0014638493 -0.00029305936 -0.0010851729 -0.0013825148 0.00014878974 -0.000571112 9.1461974e-05 -0.0006735123 -0.0008911352 0.0010490672 -0.00024629713 0.0013433008 -0.0015419697 -0.0013138541 0.00080624653 0.00034853182 -0.0010368916 -0.0011116273 0.0007958716 -2.5551959e-05 -0.00033566335 -7.0803886e-05 -4.6247773e-05 0.00031703085 0.0003202848 -0.00064578454 -0.00010116429 -5.5080018e-05 -0.0008158784 -0.0012566204 -0.0013005399 0.0011528623 0.00030834702 -0.0013467236 -0.00042088487 -0.0002600336 0.0015534915 1.17391155e-05 0.0010744531 -1.5733163e-05 0.0015843839 -0.0009385439 -0.00036600206 0.000582226 -0.00070651475 -0.0009566641 0.0010487341 -0.0002802712 -0.0004122663 0.00029166052 -0.00064475584 0.001355453 -0.0010501413 -0.0010223254 0.0011204975 -0.00013756532 -0.00054172974 -0.0012596248 -0.0008098204 -0.0013158934 -0.0009588197 -0.0004070944 0.00044320844 0.0010110725 -0.0011930605 -0.0013864157 0.0008591502 0.00044145747 -0.00082646345 0.00014002062 -0.00090917794 -0.0009407212 -0.0001970199 -0.0002467941 -0.00081260444 -0.0011994413 0.00080575666 -0.0012825017 0.0015619966 0.00055151485 0.0014333525 0.00031574073 0.000109759174 -0.0015655905 -0.0015046357 -0.0013466622 -0.0012197751 0.00066771114 0.001214962 0.000799983 -0.0003331876 0.00046966912 -0.0012641745 -1.12392545e-05 0.0010601267 0.0013462096 -0.00061400334 0.0015430065 0.00035501661 -0.0009855761 -0.0008983824 -0.0012128914 -0.0003004734 0.00080476364 0.0005991764 0.0013567536 -0.001300001 0.0010679986 0.00028028764 -8.9748406e-05 -0.0009428279 0.0011510521 0.00039958637 -0.0009568602 -0.0015958527 -0.00033230986 0.0003922706 0.001469012 -0.00083562406 -0.0005613322 -0.001415576 0.001196682 0.0004515835 0.00024198082 -0.00044994042 0.0016377459 -0.00020140751 -0.0015635605 0.0010918846 1.4233513e-05
one -0.00081006286 0.0016631318 0.00136325 0.0008362726 0.0016580789 0.0010025537 -0.0013711196 -0.0006173484 -0.0010736255 -0.00025189627 -0.00060494174 0.0016592667 0.0016002095 -0.0012054289 0.00038525808 0.00020151616 0.00056044786 -0.0007100038 0.0014212054 0.0007143368 0.0009516992 0.0005340132 -0.0004268802 -1.7086597e-05 0.00026493476 0.00027318133 -0.00096708146 0.0014215393 -0.0012142494 -0.00080331694 0.0010341612 -0.00031275649 -0.0011770454 -0.00071190664 -0.0009887823 -0.00030642992 0.0010348398 0.0004031765 -0.0007283068 -0.0014361581 -0.0004598175 0.00014880818 -4.8780847e-05 -0.000101200145 0.0007927269 -0.00047799165 -0.0015513574 -0.0011246426 0.0015971372 -0.0013739873 -0.0009802209 -0.00047348184 -0.0005222663 0.0006902127 -0.00013186953 -0.0011906463 -0.00024795707 -1.7334334e-05 0.00039388845 -0.00014493045 0.0016279164 0.0006389285 -0.000876304 -0.0014941825 0.00041835615 -9.019741e-06 0.0006674718 0.00014916895 -0.000626266 -0.00029369068 -0.0016337072 0.0006002872 -0.00024309907 0.0003185254 0.00028350987 0.00040634873 0.0015423473 0.00023865608 -0.0012100539 -0.0016167301 0.00052191387 -0.0014428131 7.733439e-05 6.424041e-05 0.0015585443 8.7993416e-05 -0.0013864931 -0.00134237 -0.0006099633 -0.00026931704 -0.0014778526 -0.0010727808 0.00074562937 4.595464e-05 0.0013726631 0.00061066146 0.0012783166 -0.00019790868 -0.000904374 0.0010132979 0.0003729904 0.0005011751 0.0009615604 0.0008282052 0.0011871534 -0.00017838414 -0.0007470928 -0.00071547023 -0.0011376938 -0.0010472406 0.000115587674 -0.00093335105 -0.0006207921 0.0009498041 0.00068576814 -8.58739e-05 0.0012045581 0.00069578056 0.0006971444 -0.00033975532 0.0013185139 -0.00010905851 0.0006350228 -0.0015449512 -0.0011877338 -0.00070496264 -0.00019854445 -0.000499364 -0.001029649 -0.0007618436 -0.0013288684 0.0013853665 -0.0011991775 -0.000494464 -6.2965606e-05 0.0005549507 -0.0011006601 0.00069175777 0.00028426247 0.00025831244 -0.0012538544 -0.000820469 0.00087295205 -0.0004499821 0.00071933225 -0.00037356262 -0.001094446 -0.0006184701 0.0012690809 -0.0007554227 0.0014388224 -0.00040341506 0.00027231048 0.0013704821 -0.0011912361 -0.00018892733 0.0011998777 0.0013149584 0.00063356734 0.0011258263 0.00083409884 0.0005669458 0.0014539398 0.0014205418 -0.0015552217 -0.0014140873 -0.0011714251 0.0006318796 0.00046987835 -0.00072935823 -0.0012417636 -0.0014449861 0.0006562887 -0.0006965077 3.1855176e-05 -0.00070032215 0.0004773279 -0.0006939843 0.0005456633 -0.00040199826 0.0002793593 0.0014252993 -0.00057857437 -0.0011195479 -0.0012808057 8.120982e-05 0.00095246756 -0.0010615726 0.0014062951 0.0016640829 -0.000116876574 -0.0011017326 -0.00015341461 0.00072205614 -0.0013005141 0.00080940453 -0.00015688306 -0.0014383744 -0.0005256957 -0.0011646616 7.3647825e-05 -2.3489888e-06 -0.0004789845 0.0005854681 -8.8058936e-05 0.0008131298 0.0015233181 -0.0015232146 0.0015125598 0.0013258322 0.0014806807 -0.0010854169 0.0002870936 -0.0009571013 0.0015766687 0.00019711007 -0.0009605587 0.0014153575 0.00049129734 0.0005809614 -0.001198152 0.00085714617 0.0003801762 -0.0014240036 0.001132594 0.0009034038 0.00088769814 -0.0010322115 -0.0013628552 0.0014201824 -0.0009886511 0.00054450467 -0.0008635073 -1.8654686e-05 0.001528357 0.0013661855 0.0013248266 -0.0007952383 0.00031660948 0.0014202304 0.0010381842 0.0013307165 0.00067537336 -0.0013160548 -0.00010265685 -0.00010154579 0.0011105858 -0.001091431 0.0003865328 -0.00036944041 -0.0006863214 -0.00030921254 0.0014999742 -0.00012839692 0.0012165732 -0.0009511365 0.0004403848 -0.0013135994 -0.00090396137 -0.0006879599 0.0005030068 -0.0013035507 -0.0007166602 -0.0016467925 0.00039337447 0.0013842871 -0.0009770431 0.0005694566 0.00057492673 0.00058245845 -0.0005696046 -0.001433011 -0.00025554386 -0.0010381348 0.000965117 0.0009290312 0.0016503101 -0.001286468 0.00017079909 0.00096668705 -0.00060814474 0.001240384 8.15751e-05 0.0010718063 -0.0011147113 0.00084569224 0.0006528354 0.0015697884 0.0016715528 0.00084714266 0.0007654024 -0.0015662536 1.7310957e-05 0.001026257 0.00013195717 -0.0011146925 -0.000349572 -0.00025856541 0.0007279561 -0.00030161667
